-0.00272109
-0.00939391
-0.0067582
-0.00487011
-0.00094727
-0.00335404
-0.01121048
-0.03191701
-0.02152457
-0.02075874
-0.00169669
0.00316164
0.00452876
0.00410932
0.02084789
0.01600734
0.01585766
-0.00032648
-0.00709119
0.00255198
0.00483154
0.0039374
0.00798465
0.00697396
0.010521
0.00095967
0.00440053
0.00960689
0.0086222
0.00745178
0.0084519
0.01252639
0.02159567
0.0038579
-0.00944097
0.00850943
0.00509371
-0.01503903
-0.01024493
-0.00137029
-0.00743249
-0.02667476
-0.02378604
-0.0310065
-0.02982849
-0.02351226
-0.01283049
-0.00845433
-0.01155142
-0.01064718
-0.01644748
-0.02209905
-0.02006533
-0.04256877
-0.02989654
-0.01597647
-0.01698847
-0.03277236
-0.01393875
-0.00165109
-0.0234477
-0.04478882
-0.04424362
-0.04289907
-0.02697652
-0.01991237
-0.02829273
-0.01802514
-0.00469519
-0.00017782
0.00361845
0.00608287
0.00894847
0.02265389
0.01805477
-0.00665548
-0.0079066
-0.01422112
-0.01183494
-0.00645173
-0.01601269
-0.01472037
-0.01744287
-0.0339263
-0.02461273
-0.00788064
0.00178226
-0.00022636
-0.00679399
-0.00109814
0.00334187
-0.00104525
-0.00084293
0.00328328
0.01008926
0.01195921
0.01282682
0.00749423
0.00946666
0.02151304
0.01048352
0.01837044
0.00979494
-0.01482471
-0.02957528
-0.03717696
-0.03118788
-0.02735984
-0.0326998
-0.02332471
-0.01749452
-0.01161971
-0.00932119
-0.01413418
-0.00132338
-0.00046279
0.01071353
0.02316891
0.00973755
0.00738
0.00299516
-0.00022745
-0.01353852
-0.00091534
0.01236316
0.02790757
0.0271143
0.02327831
0.00787149
0.00112595
-0.004139
-0.00356151
-0.00196601
-0.00123125
-0.01534177
-0.02685603
-0.01718912
-0.01451543
0.00346257
0.00066088
0.00131004
-0.00332953
0.01138151
0.0049075
0.00275804
0.00290299
0.00442136
0.00215905
0.01088504
0.01679934
0.01797891
0.02499795
0.02833611
0.01271973
0.01472722
0.00615269
-0.00426429
0.00269562
0.00467724
0.00063703
0.00881116
0.00307449
0.00223986
0.01358982
0.00212626
-0.01065767
-0.00302316
-0.00021981
-0.01219254
-0.03014719
-0.01458075
-0.02674056
-0.02782115
-0.01151477
-0.01324253
-0.01069034
-0.00828989
0.00310229
0.00264811
0.00513173
-0.00260878
-0.03619722
-0.02810206
0.00068722
0.00568502
-0.00895752
0.00309424
0.00718378
-0.01349455
-0.02076477
-0.02535505
-0.02910085
-0.02121748
-0.01902772
-0.01918564
-0.00597389
0.00189212
0.00877326
0.01064534
0.00591976
0.00309109
0.00352748
0.00317872
-0.00373981
-0.01026173
-0.00744538
-0.00238966
-0.02281161
-0.01781565
-0.01420823
-0.00769146
-0.01640703
-0.01521438
-0.00946311
-0.00383118
-0.00309074
0.00369315
0.00154122
0.00753136
-0.00064976
-0.00017888
0.0048989
0.00368357
0.01191228
0.01291935
-0.00039287
0.00404957
0.01855829
0.01840361
0.01651718
0.01723799
-0.00269174
-0.02877237
-0.03932547
-0.03442483
-0.02805788
-0.02301972
-0.01647934
-0.01551569
-0.0130476
-0.00504627
-0.009214
0.00100981
0.01494527
0.01424631
0.01702531
0.00949928
0.01184195
0.00354116
-0.00567634
-0.01194764
-0.01118694
0.01029319
0.02406748
0.02569723
0.01991921
0.01316486
0.01793808
-0.00983008
-0.01145005
-0.00898594
0.00125232
-0.00815756
0.00129535
-0.00764259
-0.01209551
-0.00140987
-0.00311782
-0.01010935
-0.02138892
-0.01503065
-0.00713609
-0.01291017
-0.00348346
0.00972964
0.00507655
0.00893135
0.01714363
0.00959307
0.0221922
0.0237721
0.0120102
0.00821042
-0.00359124
-0.02454176
-0.02195257
-0.01506683
-0.01730203
-0.0125514
-0.00351957
0.00734822
0.01656886
0.01600279
0.00467939
-0.00750183
-0.01215469
-0.0201982
-0.03200492
-0.02204307
-0.02121317
-0.01679807
-0.02029523
-0.02143588
-0.02000185
-0.00727566
0.00419612
0.00742298
0.0188863
0.01122794
-0.01366903
0.00559844
0.0244717
0.02561841
0.01581099
0.01505322
0.01115756
-0.00627836
-0.01363977
-0.00817976
-0.00609606
-0.0064209
-0.00279737
0.000409
0.00875615
0.01674421
0.02166153
0.01438925
0.01058008
0.00495684
-0.00453634
0.01033391
0.01206858
-0.00238453
0.00751468
-0.01035479
-0.02423802
-0.00404031
-0.00738777
-0.00553229
-0.00470951
-0.00540364
-0.00078298
-0.00336004
0.0002591
0.01569418
0.00623441
0.00449665
-0.01230636
-0.00679159
0.00349383
-0.00332208
-0.00015272
0.00918594
0.00232706
-0.00038305
0.00519469
0.01731802
0.01978287
0.01726747
0.00907594
-0.01019204
-0.02341286
-0.02040603
-0.01547619
-0.02016558
-0.01515425
-0.01163242
-0.00964607
0.00223455
0.00389722
0.00243432
0.0155543
0.0051331
0.00415151
0.00031841
-0.00053209
0.00387589
0.00042237
-0.01087044
-0.0125331
0.01489846
0.03757462
0.03527197
0.02523059
0.02056385
0.02233157
0.00178357
5.7181085e-05
0.00644689
0.01829378
0.02043653
0.01236613
-0.00591257
-0.01165834
-0.00560956
-0.01097322
-0.0142055
-0.01459984
-0.01193179
0.0015033
-0.00576706
-0.01052734
0.00555968
0.00534029
-0.00125645
-0.00458113
0.00499471
0.00446701
0.00896056
0.00238658
-0.00668846
-0.0086656
-0.02211747
-0.02602608
-0.02880451
-0.02409279
-0.01559649
0.00121078
0.01874077
0.01354521
0.00757228
-0.0088082
-0.017487
-0.01688921
-0.01160197
-0.02052447
-0.01163409
-0.00324516
-0.00890481
-0.01031641
-0.00629949
-0.01142536
-0.00928507
-0.00752175
0.00172555
0.00968868
0.00235322
0.00208597
0.0193861
0.02411657
0.02384161
0.01169796
0.00375584
-0.00488705
-0.00244027
-0.00588745
-0.00230736
-0.00140611
-0.00471682
0.00974315
0.00687981
0.01374585
0.01059992
0.00264208
0.00257113
0.00762944
0.00501266
0.00384839
0.02372349
0.03315326
0.03328
0.01670626
0.00657931
0.01848289
0.0206715
0.02139279
0.01977617
0.01595697
-0.00350145
0.00863665
0.01166664
0.01028736
0.0101945
0.01905632
0.01134242
-0.01962165
-0.00804953
-0.00059255
-0.01518003
-0.00785107
0.00415144
0.00288177
0.00044853
0.0040429
0.01225036
0.03793312
0.02852478
0.01361736
0.00250778
-0.0154735
-0.00191321
0.00050015
-0.00212746
-0.01274417
-0.01866979
-0.00836955
0.00363908
0.01017714
0.00089234
0.00231016
-0.0026106
-0.00925692
-0.00956465
-0.00912262
0.00340714
0.01053202
-0.00600493
-0.00976393
0.0033925
0.02958403
0.0313245
0.03660107
0.02964631
0.03098765
0.01319169
0.00460826
0.00764081
0.00944596
0.01928769
0.01830269
-0.00175446
-0.00794154
0.00232833
0.00265314
-0.00576921
-0.00832789
-0.01024893
-0.00533556
-0.01088056
-0.01573678
-0.00554218
-0.0013519
-0.00130126
-0.00030379
0.00454569
0.00070201
0.0022392
-0.00269159
-0.00917853
-0.00267613
-0.00845609
-0.01592799
-0.01643558
0.00097044
0.00395988
0.02069584
0.03072199
0.02211599
0.0072629
-0.00336135
0.00546499
-0.0051534
0.00173351
-0.00170482
-0.00070968
-0.0049882
0.00111723
0.01385486
0.01663244
-0.00025495
0.00236176
0.00144932
0.00567111
0.00321724
-0.01368169
-0.01137013
-0.00300444
0.00753484
0.00463617
0.00143199
0.00581206
-0.01351214
-0.02238883
-0.02198488
-0.02391755
-0.01826723
-0.00696651
0.00618505
0.00492151
0.00720976
0.01020454
-0.01343298
-0.01816579
-0.00036412
0.00486729
-0.00307162
0.0167459
0.01254203
0.00690848
0.00916235
0.01994113
0.03748277
0.04530085
0.02817981
0.03803567
0.02860125
0.01311108
0.01821301
0.01737465
0.02555817
0.01627018
0.01467676
0.0140454
0.00336412
-0.00802466
-0.00040899
-0.00276622
-0.00405864
0.00441731
0.00515681
0.01120531
0.01728587
0.00715598
0.01849782
0.0303464
0.00485486
0.00750794
-0.00537376
0.001695
-0.0038755
-0.0036157
-0.00603773
-0.01348904
-0.01022649
-0.00832141
-0.00627903
0.00495332
0.00266521
-0.00600445
0.00042715
0.0028932
-0.00072351
0.00218066
-0.00451192
-0.00574512
-0.00235514
-0.00174386
0.02363016
0.02543912
0.02399373
0.01704416
0.02386369
0.01226929
0.00663282
-0.00216563
-0.0028983
-0.00038724
0.00964892
-0.01306516
-0.01223078
-0.00571236
-0.00497767
-0.01137713
-0.02197251
-0.02609819
-0.00753784
0.00061293
-0.00864833
-0.00532357
-0.00449442
-0.00372372
-0.00154023
0.00143455
-0.00871236
-0.00431545
0.00416979
0.00689495
-0.00311103
-0.00450221
-0.00381927
-0.0029581
-0.00517312
0.00633543
0.01631641
0.01042242
0.01303138
0.00531966
0.00364116
0.0024925
-0.00681804
0.00549971
0.00921679
0.00202015
-0.00254004
0.01866765
0.02319762
0.01295136
0.02192797
0.02451493
0.02855744
0.01492717
0.00783786
0.00461727
0.00348203
0.00204985
0.010114
0.00186571
0.0045286
0.00029337
-0.01644313
-0.01419685
0.00178779
0.00047337
-0.00401506
0.00319263
-0.00020838
-0.00566428
-0.00037357
0.00092317
-0.00450228
-0.01032308
-0.01879922
-0.00616137
-0.02285231
-0.00682195
-0.00203507
-0.01690099
-0.02348606
-0.0058475
0.02535813
0.03155146
0.02291805
0.02686732
0.02151001
0.01833546
0.01616445
0.01173684
0.00280073
0.00240301
-0.00794157
-0.00351747
0.00064475
-0.00268407
-0.00306346
0.00211139
0.00444043
0.00251933
0.0002597
0.00386268
0.01375554
0.00734143
0.01733365
0.00712322
-0.01108179
0.00825035
0.00419674
-0.00489125
-0.00573125
-0.00546669
0.00118601
0.00234756
-0.00365622
-0.00841053
-0.00490144
0.00854273
0.0087495
5.5535333e-05
0.00256439
0.00422323
0.00649793
0.00650642
-0.00361833
3.2671185e-05
0.00047671
0.0081891
0.02645608
0.0276644
0.00606891
0.01226993
0.01569776
0.01924561
0.00348387
0.00156018
0.00433365
0.00607556
-0.00365197
-0.02408514
-0.01502267
-0.00807988
0.00103339
-0.01645572
-0.02834608
-0.02109529
0.00389143
0.00647107
-0.0025383
-0.00134592
-0.00750085
-0.01695772
-0.00888
0.00867888
0.00710653
0.00322378
0.00138347
-0.00809237
-0.00204727
-0.00537729
-0.00877265
-0.01069757
-0.01678512
-0.00917257
-0.00359066
-0.00075698
-1.4308689e-05
0.00055369
-0.00027294
-0.00307659
-0.00518111
-0.00628206
-0.00974312
-0.00988431
-0.00403379
0.01843395
0.02289032
0.02872681
0.02493508
0.0238055
0.02108174
0.01010623
0.00191925
-0.00120185
-0.00535164
0.01544951
0.01507723
-0.01024036
-0.00355377
0.00593503
0.0092597
0.00306288
-1.6358623e-06
0.01768339
0.01825186
0.00616481
-0.01497378
-0.02421548
-0.01780124
-0.02377148
-0.00671272
-0.01054677
-0.02700718
-0.01711
-0.03363233
-0.02634427
-0.01834901
-0.02796587
-0.03457501
-0.01018999
0.01055108
0.01520481
0.01579848
0.02117396
0.01541158
0.02165571
0.01187769
0.00033663
-0.02080185
-0.0150569
-0.00580885
-0.00088455
-0.01225229
-0.01722376
-0.00880183
0.00821606
0.00928755
0.00156739
0.00672217
0.01546199
0.00895027
0.00957398
0.02268128
-0.00061834
-0.01539769
0.00212023
-0.00115604
-0.00406953
-0.0110601
-0.00263039
0.01427454
0.01752103
0.01818012
0.00783086
0.00422087
0.01176149
0.02116056
0.01152229
-0.00563177
0.00201767
0.01245767
0.01261378
0.00833471
0.00853978
0.00273253
0.01484403
0.026401
0.02128822
-0.01137506
0.00321239
0.01403841
0.01392275
0.00086139
0.00235172
0.00387037
0.00383339
-0.01014536
-0.0165241
-0.00554948
0.00727033
-0.00351324
-0.00661493
-0.0127355
-0.01482479
-0.00758834
0.00735517
0.00333093
-0.00947923
-0.02212343
-0.01398145
-0.00182917
0.01632333
0.01383919
0.00995365
-0.00062716
-0.00880318
0.00898677
0.00432969
-0.01399375
-0.01635852
-0.01046435
-0.00645903
-0.00368759
0.00065144
-0.00929694
-0.00498858
-0.00732919
-0.00699745
-0.0033103
-0.02254424
-0.03026463
-0.01942422
-0.00346493
0.00346364
0.02238599
0.02630304
0.0233876
0.03221446
0.02633649
0.0116772
-0.01293146
-0.01006051
-0.00036026
0.00713294
0.00829295
-0.00518608
-0.00213391
0.01266449
0.00328406
-0.01204983
0.00165684
0.01509516
0.0040692
-0.0021257
-0.01467221
-0.00157789
-0.00950652
-0.02219784
-0.00758035
0.00072188
-0.01160153
-0.0153507
-0.02164165
-0.02165052
-0.03274574
-0.04397747
-0.03641911
-0.01540039
-0.0048804
0.00825805
0.01172836
0.0079375
0.00817481
0.02109724
0.01460738
0.00090386
-0.00988321
-0.01164436
0.00292606
-0.0007682
-0.00885778
-0.01867956
-0.01822406
0.00900541
0.02341188
0.02179624
0.01327848
0.00126909
0.00011871
0.00825975
0.02337117
0.00735401
-0.00972976
-0.01192232
-0.01196502
-0.01122272
-0.00727844
0.00197004
0.00365199
0.02446735
0.03378308
0.02242117
0.01213694
0.01350899
0.01577309
0.00770604
-0.00487003
-0.00065798
0.00141571
0.01102122
0.01354506
0.01638489
0.00255286
0.01098158
0.02400472
0.01305237
-0.01813344
-0.01320608
0.0013423
0.00683807
0.00833415
0.00386852
0.0060814
0.00614444
-0.00033669
-0.00181165
0.00267397
-0.00217415
-0.01485756
-0.00727552
-0.01255593
-0.01348177
-0.00194152
0.0164947
0.00589914
-0.00165325
-0.01016237
-0.00323445
0.00801326
0.01382691
0.01062257
0.01423391
0.00692693
-0.00041264
0.0044483
-0.00339241
-0.01332816
-0.01365288
0.00221363
0.00170857
-0.0046047
-0.00648644
-0.01506103
-0.00314119
0.00214561
0.01771579
0.02237498
-0.00655168
-0.01121585
-0.01036918
-0.01319313
-0.01241586
0.00949077
0.02536413
0.01516
0.02676226
0.01877847
-0.00576871
-0.01180097
0.0009103
-7.080962e-06
-0.00517574
-0.01062795
-0.01183405
-0.00754581
0.00075774
0.0039939
0.00091336
-0.00338767
0.00340982
-0.00612908
-0.01286017
-0.00324632
0.00123116
-0.00456964
-0.01067809
-0.00394075
0.01324994
-0.0044034
-0.01077209
-0.00923696
-0.0090442
-0.0142045
-0.04440572
-0.03839724
-0.02782518
-0.0186637
0.00215716
0.0194029
0.00700955
0.0183799
0.03314146
0.02967262
0.01312892
-0.00816995
-0.00095088
-0.00035897
-0.00583842
-0.01158281
-0.01348468
-0.00864896
-0.00566299
0.01327519
0.02212711
0.01485818
0.00678329
-0.00697342
-0.00272289
0.00993469
0.00156162
-0.01075678
-0.00948173
-0.01225064
-0.0107625
-4.4154713e-06
1.5907332e-05
0.00347832
0.02452307
0.03150557
0.01611761
0.00494815
0.00251975
0.00836393
0.00589759
-0.00015275
0.00113469
-0.00080806
0.0157176
0.01026032
0.01208561
-5.867221e-05
-0.00577734
0.01114352
0.0068576
-0.0157186
-0.00897176
-0.01168325
-0.00384158
0.01059421
0.01424986
0.01994476
0.01993434
0.01046215
0.00677875
-0.00576808
-0.01502572
-0.0138066
-0.00496916
-0.0075999
-0.00588813
0.00896817
0.0098307
0.01419808
0.01783957
0.00067422
-0.00785252
0.00010101
0.00381067
0.01303942
0.02015925
0.00434648
-0.00592979
-0.00342226
-0.00422685
-0.00965777
-0.00597277
0.00358364
-0.00059491
-0.01312648
-0.01993041
-0.01538415
-0.00665592
0.01142223
0.02756687
0.0189642
0.00251198
-0.01397563
-0.01516306
-0.00925314
-0.00865766
0.01060445
0.02350551
0.00991051
-0.00327384
-0.00706566
-0.02749501
-0.00782035
0.00596649
-0.0042326
-0.01215354
-0.00612542
-0.01188081
0.00079726
-0.00514699
-0.00040259
-0.00312486
-0.01552842
-0.01582937
-0.01647699
-0.02963009
-0.01545194
-0.00658261
-0.00542999
-0.02560722
-0.01698934
-0.00622197
0.00592662
0.00556155
-0.0031865
-0.00285415
-0.0147416
-0.03663538
-0.05598633
-0.03996472
-0.01807384
-0.00283352
0.0156961
0.00592247
0.01102409
0.02495914
0.0350952
0.04066992
0.01607752
-0.00063788
-0.00966025
-0.01117211
-0.01467512
-0.019866
-0.01258395
-0.00916007
-0.00126974
0.01806489
0.00926732
0.01320201
0.01230047
-0.00313961
-0.00037322
-0.01114098
-0.0280616
-0.01054185
-0.00100734
-0.00424392
0.00771787
0.01383179
0.01532416
0.01575502
0.01321729
0.0002194
0.00087988
-0.00580827
0.00247911
0.0090455
0.0077495
-0.00127852
-0.00065945
0.00550629
-0.00278481
0.00116916
-0.01190451
-0.01437279
-0.00233937
-0.00430253
-0.01915193
-0.00244555
0.00230646
0.0056631
0.01569282
0.01077435
0.02693845
0.03466796
0.01436263
0.00147941
0.00669523
0.00514624
-0.00294249
-0.00727869
0.0010725
-0.00714081
-0.00895855
0.01515755
0.02636128
0.01742522
0.00369067
0.00303518
0.00476964
0.00104598
0.01087509
0.00534841
-0.00508926
-0.01164817
-0.01595667
-0.01180138
-0.01164441
0.00647741
0.00746309
-0.00175392
-0.01558401
-0.01545307
-0.01684478
-0.00710882
0.00799323
0.01455275
0.00215888
-0.0060705
-0.01277629
-0.00271253
-0.00042683
0.00067562
0.00923854
0.00038831
-0.00161358
-0.01280161
-0.02715892
-0.04276453
-0.03161153
-0.01519767
-0.00998807
-0.00288563
-0.01090813
-0.01423764
0.00775238
-0.00191374
-0.0032655
-0.00352857
-0.01738669
-0.01189942
-0.00090959
0.00404266
0.00292748
0.00351001
-0.00799366
-0.02424678
-0.01741192
-0.01505379
-0.00444916
-0.00107389
0.00352168
0.01121394
-0.00817675
-0.02810638
-0.03586881
-0.01009765
0.01398303
0.00789446
0.00404242
0.02901732
0.02059768
0.02385733
0.02292624
0.02002196
0.02654524
0.01510214
-0.01765005
-0.02409869
-0.02555822
-0.02855719
-0.0270322
-0.01066825
-0.00355621
0.00266188
-0.00179136
0.00712082
0.02186482
-0.0012929
-0.00440874
-0.00216738
-0.02344569
-0.01058266
9.080383e-05
0.00090849
0.00715331
0.00299272
0.01208176
0.01393542
0.01305678
0.00462818
-0.00085008
-0.00372125
0.00323496
0.00740026
-0.00598187
-0.01986058
-0.01508354
-0.0087488
-0.00415468
-0.00241288
-0.01277896
-0.01354203
-0.00740247
-0.01449816
-0.0209572
-0.00085466
0.00023495
-0.00673988
-0.00291387
0.00253344
0.03449543
0.0345759
0.01918253
0.00961528
0.00617554
0.00185871
-0.00011452
-0.00761848
-0.00061964
-0.00740026
-0.0007444
0.01248238
0.02086973
0.01806068
0.01071881
0.0079389
0.0042637
-0.00425293
-0.00541086
-0.00581843
-0.00492244
-0.01193552
3.3949098e-05
-0.00311425
0.00548501
0.02512765
0.00987195
0.00340525
-0.00345013
-0.00541421
-0.01875112
-0.01705623
0.00257299
0.01492418
0.00233617
0.00098424
-0.00790194
0.00202697
0.01531998
0.0090254
0.01135232
-0.00420457
-0.00805867
-0.02744876
-0.02487115
-0.0287125
-0.03734758
-0.02301
-0.00914848
0.00195136
0.0001461
-0.01402999
-0.0148195
-0.00846323
-0.01578122
-0.01075163
0.00183428
0.00243131
-0.00374425
0.00170195
0.01765462
0.00762616
-0.00310619
-0.02067677
-0.01997931
-0.02698687
-0.02636202
-0.01043673
-0.00415681
-0.00886412
-0.01176676
-0.01594389
-0.0205834
-0.00312045
0.0013937
0.01735586
0.00208847
0.0228873
0.03291603
0.02356686
0.02031999
0.00546091
0.01533162
0.01089576
-0.01033774
-0.01650124
-0.02562743
-0.01748982
-0.01981787
-0.00514841
0.00429543
0.00484456
0.00265764
0.00501762
0.00975833
0.00918501
0.0053248
-0.00219054
-0.00305144
0.00164051
0.00328944
0.00173177
0.01376014
0.00527943
-0.0049927
0.01234696
0.01939885
0.00398313
0.00259064
0.0074798
0.01113494
0.00882866
-0.00979234
-0.01997114
-0.00726939
-0.00343048
-0.00527019
-0.00820126
-0.00810332
-0.01138846
-0.01242276
-0.00977978
-0.0144973
-0.00398475
-0.01430926
-0.01882031
-0.01831614
-0.0013572
0.01050069
0.01401994
0.01215891
0.00242348
-0.009343
-0.01291747
-0.01279429
-0.01318685
-0.00594652
-0.01775544
-0.00699714
0.01489308
0.02010089
0.02277084
0.01536873
0.00585017
-0.00330976
-0.01730541
-0.0193066
-0.01025114
-0.0093069
-0.01483969
0.00920517
0.01261652
0.01500716
0.02862601
0.01791111
0.02025231
0.00279676
-0.00387058
-0.01195972
-0.01064421
0.01277208
0.01433937
0.01022418
0.00549058
-0.01320653
-0.0004334
0.02382976
0.01850702
0.0037916
0.00307862
-0.004598
-0.01561356
-0.00691816
-0.01485617
-0.02192729
-0.01974518
-0.01471397
-0.0125797
-0.00677491
-0.02286313
-0.02641501
-0.00300456
0.0027331
-0.00438934
-0.00023647
0.0001481
-0.01496413
-0.01425896
-0.00818767
-0.00414716
0.01093731
-0.01893194
-0.01436646
-0.02433354
-0.02568835
-0.00577684
-0.00071493
0.00465583
-0.00091941
-0.00168034
-0.01358898
-0.00492194
-0.00284211
-6.5818684e-05
0.01042253
0.01411742
0.01693697
0.0101045
0.00963131
-0.00815818
-0.00657364
-0.0190417
-0.01808688
-0.02438517
-0.02474198
-0.01145312
-0.02747592
-0.01698769
0.00238781
0.00280962
0.00904795
0.01326883
-0.00086387
0.00800678
0.01100258
-0.00449578
-0.0116676
-0.00018897
0.00318056
0.01115458
0.01145975
0.00727792
-0.00705969
-0.00173664
0.01397923
-0.00120858
-0.00541165
-0.00138924
0.01237283
0.01170763
0.00473052
-0.00163619
0.00311589
-0.00175467
-0.00886296
-0.00513401
-0.00785721
-0.01895802
-0.01735101
-0.00377622
-0.00899983
-0.00017508
-0.01061419
-0.01739426
-0.01336693
0.00118588
0.00124869
0.00482615
0.00398672
-0.00203823
-0.01305455
-0.01499529
-0.01433636
-0.02502462
-0.01682238
-0.01649953
-0.00148492
0.01162753
0.01435449
0.01789602
0.01253284
0.01298497
-0.00806301
-0.02555537
-0.0197807
-0.00843453
-0.01133356
-0.00754332
0.01042539
0.02514295
0.0361759
0.03422289
0.02221286
0.02101062
0.01537518
0.01330552
0.00617089
0.00299757
0.00341652
-0.00987892
-0.00289988
-0.00750244
-0.02706691
-0.00491108
0.02181639
0.02528899
-0.00493866
-0.02275769
-0.01736385
-0.01490968
-0.02243289
-0.01604429
-0.01154484
-0.00532666
-0.00271518
-0.01415424
-0.01255387
-0.00855898
0.00751327
0.02404201
0.01429305
-0.00361536
-0.01587719
-0.0149351
-0.01767181
-0.01063246
-0.01126963
-0.02038683
-0.02705452
-0.02060513
0.00248053
-0.00397049
0.00288359
0.00236649
0.00444249
0.0051963
-0.00537183
-0.00983347
-0.01289745
-0.01527819
-0.00901824
-0.00189428
-0.00438138
0.00365043
0.01402819
-0.00500131
0.00018353
0.00354921
-0.00881574
-0.01553165
-0.02754852
-0.0280355
-0.02220323
-0.01327181
-0.02309235
-0.01696164
0.0056141
0.01314499
0.00490893
0.01118692
0.01088551
0.00395646
0.00234171
-0.00559518
-0.00934479
0.00588199
0.00222734
0.0182281
0.01324499
-0.00307103
-0.01157693
-0.01221846
-0.00748855
-0.01692581
-0.02831895
-0.02171601
0.00219823
0.00739298
0.00183516
0.0040464
0.00951431
0.00598466
0.00109175
-0.0104558
-0.013003
-0.01494017
-0.01145209
-0.00370164
-0.00441355
0.00259846
0.00867057
0.0042928
0.00342251
0.00494408
0.01452644
0.00711114
0.01529009
0.00943563
0.00054734
-0.00355485
-0.00644194
-0.01504436
-0.01065693
-0.0050964
-0.00360243
0.00284194
0.00402842
0.00362779
0.00297648
-0.00339786
-0.0223845
-0.02483761
-0.01359706
-0.0009884
-0.00156877
0.0117851
0.02044417
0.03026955
0.03996616
0.03587016
0.02708069
0.02373656
0.00802544
-0.00244397
0.00127964
-0.00348729
-0.00676387
-0.02360437
-0.01800584
-0.02421618
-0.02905384
-0.00646866
0.01302083
0.02032816
-0.00903228
-0.02723967
-0.02773461
-0.01617178
-0.00667076
0.0007344
0.00128057
0.01131298
0.00213854
0.00219558
0.00606629
-0.00553171
0.0167189
0.02774777
0.01374323
0.00683963
-0.00686098
-0.0230969
-0.01724486
-0.02353397
-0.03076533
-0.02084254
-0.02430208
-0.02449116
-0.00418743
0.00958626
0.00837556
-0.00394631
-0.0009028
-0.00260972
-0.02571817
-0.0226477
-0.01003667
0.00376429
-0.00939392
-0.00882664
-0.00574717
-0.00495465
0.00826768
-0.00962579
-0.01134321
0.00216158
0.01256056
0.01023412
-0.01511339
-0.03574134
-0.01092599
0.00215097
-0.00332356
-0.01709471
0.0008823
0.02807407
0.00609995
-0.00115242
0.01928908
-0.00322278
-0.01197781
-0.01335631
-0.01868396
-0.00857067
-0.00151365
-0.00773338
-0.00199621
-0.00376293
-0.01003384
-0.02267466
-0.03228137
-0.03330042
-0.04291759
-0.039533
-0.01387601
-0.00157916
0.00918856
0.01087264
0.02423319
0.02304213
0.00896263
-0.00497669
-0.00609401
0.00112178
0.00915453
0.01507243
0.0094046
-0.00070719
0.00535235
0.00393521
0.00676329
0.01465451
0.01746535
0.00627184
0.01863091
0.00865412
-0.00385864
-0.01160048
-0.00267089
-0.00032843
-0.00312961
-0.00170977
0.00309895
0.00988035
0.00523782
0.01192369
0.0051012
-0.00640833
-0.00927227
-0.00495329
-0.01216356
-0.00534033
0.00335754
0.01707891
0.02581795
0.0276441
0.03748967
0.04052678
0.02881817
0.03164375
0.01121768
0.00272555
0.00372582
0.00670088
-0.00569059
-0.02574534
-0.02737272
-0.0267929
-0.02082168
-0.02748604
-0.00745581
-0.0117794
-0.02022037
-0.03353596
-0.01295272
-0.00031829
0.00219473
-0.00605589
-0.00356907
0.00177814
-0.00239407
-0.00465216
-0.01286977
-0.01536119
0.00103533
0.0063848
0.00360804
-0.00660796
-0.01266525
-0.02362189
-0.03332232
-0.03526898
-0.03014831
-0.00795384
-0.01693073
-0.01928645
-0.00488944
0.01322059
0.00160464
-0.02568021
-0.01459451
0.00089109
-0.01404787
-0.02628714
-0.0094415
0.02887677
0.00149217
-0.00794658
0.00372852
-0.00177808
-0.00049028
-0.01128354
-0.02064827
-0.00185962
0.01005304
0.02138638
-0.01752756
-0.02848874
-0.00512663
0.01664533
0.03472103
0.02061827
-0.00496422
0.01815983
0.01652035
-0.00307882
0.00371597
-0.00882115
-0.01337126
-0.02253832
-0.0313628
-0.01457509
-0.00462652
-0.00383634
-0.0009401
0.00692491
-0.00914207
-0.02077542
-0.03155469
-0.03012026
-0.03390798
-0.03718456
-0.01922608
-0.01038081
0.01058536
0.02082059
0.0205477
0.01779726
0.00327556
-0.00358454
0.00111773
0.00568517
0.00552435
0.0108449
-7.9277255e-05
-0.01382505
-0.00781524
-0.00117935
0.01329206
0.01055697
0.00766251
0.01192578
0.00883581
-0.00104661
-0.0078603
-0.0032748
0.00355733
0.00065615
0.00577336
0.00509988
0.00491183
0.01015474
0.00304864
0.00412673
0.01168153
0.00259091
0.00751483
-0.00179688
-0.00807748
0.00512375
0.01839085
0.02452797
0.03482107
0.02533096
0.0315044
0.02346545
0.02483701
0.03437675
0.01305711
0.01422375
0.00950931
-0.00122286
-0.01959501
-0.0287955
-0.03039424
-0.0358173
-0.02897563
-0.0163238
-0.01197452
-0.01300704
-0.01456784
-0.01721984
0.00779595
0.00929575
-0.01157051
-0.01794478
-0.0144532
-0.00688874
-0.00048919
-0.00148576
-0.00337471
-0.00260232
0.00266908
-0.01176576
-0.0223189
-0.02063525
-0.01821527
-0.02223818
-0.04014634
-0.04345133
-0.03412338
-0.00948683
0.00534779
0.00616183
0.00583073
0.01479113
0.01281024
-0.02376
-0.02745532
-0.01211391
-0.02338029
-0.02194154
0.00277717
0.01178291
0.01358599
0.0147321
0.01760211
0.00362721
-0.00948062
-0.02283302
-0.02576449
-0.00399301
0.00531457
0.00957194
-0.01155065
-0.01565895
0.0035905
0.02095661
0.03942481
0.04113993
0.00085001
-0.00657976
0.01016233
0.00453093
0.00148732
-0.01088427
-0.01195257
-0.01237062
-0.02204962
-0.01010499
-0.00525481
0.00704306
0.0071546
0.0063579
-0.00587247
-0.01899003
-0.02393368
-0.01714576
-0.01871623
-0.03742575
-0.02952229
-0.00858316
0.01034625
0.0191428
0.03203389
0.02414605
0.00583425
0.01001228
0.01457377
0.00901897
0.00618314
0.00762144
-0.00637662
-0.01209886
-0.00258429
0.00878455
0.02142996
0.01273575
0.01465495
0.01480093
-0.00058851
-0.00678606
-0.01314748
-0.00805971
0.00662557
0.0174418
0.01115784
0.00974832
0.01286319
0.01803386
-0.00266636
-0.00509216
0.01518463
0.00578204
-0.00040276
-0.00851616
-0.01156488
0.00796268
0.01581794
0.01849635
0.03334119
0.02524019
0.01438534
0.0164467
0.02712416
0.01821632
0.00940708
0.01877907
0.00343928
-0.00576615
-0.00370073
-0.00881081
-0.01857325
-0.02916549
-0.01975243
0.00430421
-0.01307092
-0.0099415
-0.00556778
-0.01003108
0.00646252
-0.00127197
-0.0214507
-0.0268128
-0.02054673
-0.0060859
-0.01031026
-0.01177453
-0.0182839
-0.01550919
-0.01113442
-0.01819113
-0.03192132
-0.01871422
-0.01854875
-0.03654119
-0.05036451
-0.04316311
-0.04439374
-0.01187027
0.01097696
0.00417358
0.0040382
0.00734373
0.01675179
0.00051413
-0.02065445
-0.01760507
-0.01526838
-0.0243629
-0.02152448
-0.02246968
0.00061195
0.01695844
0.0286098
0.02745963
0.00300833
-0.01560963
-0.01452766
0.00277341
0.00789812
-0.00035149
-0.00011539
0.00749865
-0.00215402
0.013054
0.02027493
0.01035569
0.00287099
-0.00951046
0.00046171
-0.00065201
-0.01243541
-0.00047914
0.00086009
-0.00727429
-0.01183417
-0.00541747
-0.00659578
0.00461223
0.01013598
0.00736027
-0.00311111
-0.00777601
-0.0229545
-0.01661231
-0.00832747
-0.0114643
-0.01958997
-0.01833462
-0.00242831
0.02105854
0.02638382
0.0201301
0.0088245
0.01757405
0.01264746
0.01163479
0.00818898
0.004926
0.00563116
-0.00563429
0.01442482
0.01813878
0.02460436
0.02629981
0.02468505
0.01747682
0.00912597
0.00080163
-0.01848507
-0.0045942
0.00661124
0.01500407
0.02363185
0.01977285
0.02533551
0.0180834
0.00127038
0.00680573
0.01616475
0.00860951
-0.0034219
-0.00578135
-0.01260789
-0.00797966
-0.00816088
0.00064761
0.0117359
0.00929231
-0.00863507
-0.00123455
0.01156966
-0.0046879
0.01130909
0.0151214
0.00180225
-0.00126805
0.00388261
-0.00462104
0.0022683
-0.00284318
-0.00404415
0.00013226
-0.01585461
-0.00577201
0.00529838
0.00363995
0.00802866
-0.00018637
-0.00460387
-0.00932039
-0.0111873
-0.01434489
-0.01456261
-0.02394582
-0.0220295
-0.01421333
-0.01106003
-0.01655307
-0.0274403
-0.02936987
-0.02638682
-0.0321386
-0.04127603
-0.04409184
-0.03704714
-0.00348084
-0.00107013
-0.00448787
0.00484065
-0.00541064
-0.00794418
-0.00349496
-0.02272963
-0.01912399
-0.01407904
-0.02755793
-0.02436309
-0.02666768
-0.011166
0.00785498
0.02387229
0.02214124
0.01468145
-0.00630419
-0.02254565
-0.01217551
0.01172771
0.00768386
0.00411397
0.00642684
0.00818167
0.00618185
0.00940043
-0.0095925
-0.00720561
-0.00810406
-0.01734078
-0.01300214
-0.00816252
-0.00098529
0.00206764
0.00019589
-0.00530832
-0.00547979
0.00348508
0.01392562
0.01778786
0.01096875
-0.00711617
-0.01208074
-0.02165745
-0.01713725
-0.00211558
0.00938117
0.00167376
-0.01187058
-0.00424311
0.01086169
0.01735189
0.01378564
0.00785606
0.00789073
0.00504615
0.0099513
0.01517953
0.01134343
0.01427019
0.00228362
0.01725402
0.01662726
0.0130804
0.02406394
0.02523641
0.01765941
0.01880042
-0.00067108
-0.01430656
-0.01232918
0.00806435
0.01900278
0.01928923
0.02500629
0.02892576
0.01065106
0.01142373
0.01296843
0.01090854
0.01504304
-0.00750097
-0.0235722
-0.03571398
-0.0279911
-0.00833556
-0.0036186
0.00404176
-0.00404079
-0.01070715
-0.0065484
-0.00292183
0.00165737
0.00607821
0.0057792
0.00779236
0.00639792
0.00073193
0.00864656
0.0220728
0.01359303
0.0007337
-0.00157924
0.00373669
0.01528907
0.01403635
0.00692315
0.00320918
0.00406302
-0.0088097
-0.01226997
-0.01538294
-0.01569651
-0.01141945
-0.01949119
-0.02120359
-0.02198403
-0.01878228
-0.01648903
-0.01810061
-0.02414234
-0.02661994
-0.01921295
-0.01471214
-0.03978166
-0.02094892
0.00440995
0.00587809
-0.00897964
-0.01925753
-0.0144542
-0.0086544
-0.00360502
-0.01467325
-0.02274435
-0.03525017
-0.03713839
-0.01606341
-0.00593034
-0.00398805
0.0029785
0.01535917
0.01330617
0.01380434
0.00151668
-0.01436458
-0.02157467
-0.00132575
0.01054208
0.02004732
0.01268283
0.01882195
0.00567375
0.01164815
-0.01322055
-0.02226715
-0.01409091
-0.01948617
-0.01874321
-0.01034084
0.00375542
0.00309902
-0.00913454
-0.00305598
-0.00046415
0.0064278
0.00269352
0.02348558
0.02413089
-0.00305481
-0.0168213
-0.01048443
-0.01476999
-0.00777939
0.00155345
0.00598063
0.00048088
-0.00296003
0.00018467
0.00422165
0.01120535
0.01524973
0.00680294
0.00501927
0.00823425
0.01285168
0.01553725
0.02716959
0.00967209
0.01706801
0.0072808
0.00237379
0.01405726
0.01148273
0.00603921
0.00471102
-0.00902353
-0.02553048
-0.03161529
0.00816668
0.01173714
0.01455635
0.01505302
0.01513363
0.00275687
0.00708063
0.00985731
0.00616676
0.00271558
-0.02451647
-0.02794672
-0.02935378
-0.02220907
-0.00434716
-0.00641771
-0.01104178
-0.02421828
-0.01749661
-0.00877449
-0.00343272
0.00053873
-0.00111009
-0.00807292
0.01141194
0.01109548
0.01878293
0.01507786
0.02378317
-0.00344833
-0.01447425
0.01024844
0.01578962
0.00477384
0.00997799
-0.00060542
-0.00604275
-0.0036369
-0.00655205
-0.00738851
-0.02468125
-0.01463487
-0.01577782
-0.02545041
-0.03283484
-0.02909437
-0.01577965
-0.0113738
-0.01039843
-0.02286227
-0.01869267
-0.00869951
-0.00222786
-0.02981002
-0.01822781
0.0030855
-0.00680354
-0.01731057
-0.01692999
-0.00614526
-0.01031265
-0.00721059
-0.01633924
-0.02234002
-0.02637033
-0.01620803
-0.01360333
0.01004342
0.00815926
0.00423322
0.00861897
0.00573742
0.01068521
0.01632353
0.00289264
-0.00039829
-0.00286074
0.00646291
0.02035446
0.01731945
0.0267778
0.01886447
0.01555794
-0.00878876
-0.00666879
-0.00260076
-0.01331867
-0.01727248
-0.00442171
0.00866006
0.00272093
-0.00921152
0.00029603
0.00407991
-0.00960535
0.00532312
0.02305264
0.02822487
0.00693141
0.00786154
-0.01218782
-0.01786578
-0.01242799
-0.01235
-0.00323792
-0.00473064
-0.0008358
-0.00431242
-0.00312849
0.00851147
0.01915887
0.01592929
0.01994804
0.0162144
0.01012089
0.01272817
0.02107067
0.01207771
0.01817357
0.02280268
0.00486026
-0.00096433
-0.00167773
-0.0015486
-0.00701168
-0.02299758
-0.02303301
-0.01948758
-0.00414537
-0.00552241
-0.00280392
-0.00992066
-0.01036585
-0.01004616
-0.0002121
0.00526483
0.00617487
0.00497628
-0.00581799
-0.01473168
-0.01478253
-0.0128277
-0.00407533
-0.00834567
-0.02767368
-0.04610704
-0.02906819
-0.00868682
0.00727813
-0.00214549
-0.00393302
0.0059215
0.01140941
0.01491062
0.01248843
0.00354377
-0.00197752
-0.01258071
-0.00707553
0.00529674
0.00794201
0.01273474
0.01440062
-0.00452763
-0.003551
-0.00076391
-0.00063002
-0.00436817
-0.02055994
-0.00079433
0.00038016
-0.01378429
-0.00831047
-0.01216332
-0.02026069
-0.02600074
-0.02624311
-0.02877479
-0.02504536
-0.02639951
-0.02854965
-0.0344065
-0.0248303
-0.01367757
-0.00862764
-0.01661506
-0.01828923
-0.0108361
-0.00385672
0.00425763
0.00550442
-0.00600446
-0.01574757
-0.00993793
-0.00205788
0.01853073
0.01653342
0.02954778
0.03297641
0.01666568
0.01199804
0.01268081
-0.00464137
-0.00113877
-0.00495936
0.01255328
0.03065859
0.02671035
0.02642739
0.01561617
0.01016268
-0.00584737
0.00260075
0.0176147
0.0069363
-0.00226604
0.01052402
0.01331459
0.00218613
-0.00245015
-0.01078158
-0.01152245
-0.01743611
0.00418274
0.0079171
0.02784379
0.00895355
0.00284087
-0.00964307
-0.01107291
-0.01110438
-0.01208751
0.00054875
0.0025359
-0.00200706
-0.01300159
-0.01208221
0.00169201
0.0131014
0.00543323
0.01520869
0.01041808
0.00401262
0.00901027
0.00144786
0.0265102
0.02304283
0.02883483
0.01549081
-0.01227329
-0.00644737
0.00163961
-0.01720015
-0.03500304
-0.02147
-0.02168669
-0.00783505
-0.00981202
-0.01653364
-0.02085909
-0.01340826
-0.01063859
-0.01145229
-0.01476741
-0.00412785
0.00651659
-0.00314515
-0.0180592
-0.02049034
-0.01673733
-0.00772467
-0.0088839
-0.02141183
-0.02325913
-0.02558719
-0.0190197
-0.00255977
0.0013785
-0.00226151
0.00750031
0.01297179
0.02701012
0.01630738
0.0067215
-0.01670055
-0.00996631
0.00861142
0.0084713
0.00527929
-0.00257858
-0.00358183
0.00089127
0.00928911
-0.00148104
-0.00635912
-0.00298529
-0.00073994
0.01280395
0.00981696
0.01920004
0.01186169
0.00472975
0.00578237
-0.00733783
-0.01772868
-0.0174537
-0.02142174
-0.02179576
-0.01604329
-0.02598994
-0.02789078
-0.0225718
-0.00873063
-0.01728557
-0.02517934
-0.02438312
-0.01555969
0.0028232
0.01294276
0.01221326
0.00089955
-0.01713254
0.00065601
0.02176721
0.02828052
0.03631581
0.03911059
0.03051365
0.03288886
0.01370568
0.00801183
0.01138726
0.0192738
0.02392293
0.03368296
0.029204
0.02307857
0.01593437
0.01618873
0.01336423
-0.00706063
0.0095003
0.01682868
0.00991563
0.01129058
0.02345117
0.00552878
0.00282621
-0.02626234
-0.02415567
-0.0223126
-0.00477753
-0.00440319
0.02322856
0.02976214
0.018723
0.01074583
-0.00024227
-0.01021496
-0.00502421
0.00421908
0.00589468
-0.00014379
-0.01319734
-0.01021188
0.00126892
0.00462083
-0.00497459
0.00153185
0.00628594
0.00222528
0.00359508
-0.00252242
0.01231785
0.00445968
0.01591986
0.01419394
-0.00317945
0.00034011
-0.00367107
-0.01859777
-0.03272233
-0.02034731
-0.03287234
-0.00922231
0.00294273
-0.00999736
-0.02035529
-0.02070672
-0.01019643
-0.01413959
-0.02402862
-0.01034294
0.00592692
-0.00137077
-0.0136719
-0.02186645
-0.01324615
0.00325664
-0.00846408
-0.01896013
-0.01914935
-0.01116759
-0.00765689
0.00166302
0.0012873
-0.00321533
0.0081913
0.02292247
0.01740649
0.00387125
-0.01565572
-0.01606735
-0.01540744
0.00927564
0.01555473
0.00830194
-0.00506591
0.00309971
0.00464473
-0.01196977
-0.01400658
-0.00721292
0.00722532
0.01703397
0.01769682
0.01245792
0.00932391
0.0144779
0.02204984
0.01002799
0.00638105
-0.00401821
0.00014754
-0.00286742
-0.0054324
-0.00438412
-0.02219825
-0.02634736
-0.0277154
-0.02208569
-0.01820932
-0.02224714
-0.01647588
-0.01518522
-0.01771352
-0.00472798
0.00165643
0.00053783
-0.00472492
-0.00576946
0.00546961
0.03081908
0.0323626
0.03235071
0.02770625
0.02971489
0.01398503
0.00391884
0.02111402
0.02638763
0.00595076
0.00336028
0.01289262
0.01565168
-0.00799576
0.00065212
0.01638381
0.00261361
0.00924963
0.01840775
0.02029909
0.01443544
0.02854401
-0.00046359
-0.00239604
-0.00773976
-0.01573771
-0.01185777
0.00062814
1.2290204e-05
0.01705087
0.01836787
0.02093163
0.02421465
0.01094858
-0.00393592
-0.00708011
0.00265882
0.01502666
0.01847899
0.01441733
-0.00334538
-0.01230649
-0.00141876
0.00715261
0.00723227
0.01031473
0.01074571
0.01006309
0.00347227
0.00882662
0.01426083
0.01649282
0.01793174
0.01323342
0.01206956
-0.00312879
-0.0220624
-0.02551555
-0.01658219
-0.02352074
-0.00314851
0.00973688
-0.00180618
-0.01976267
-0.01957038
-0.00814932
-0.00853
-0.01044706
-0.00395816
0.00643693
-0.00314312
-0.00951454
-0.00683579
-0.01398728
0.00357594
0.00635921
-0.01718858
-0.02998222
-0.0098425
0.0045868
0.0089328
0.01655231
0.02042195
0.02196985
0.02237989
0.02546979
0.00459512
-0.0244606
-0.01587491
-0.00208823
0.01828373
0.02476706
0.0211105
0.00872041
0.00247393
0.00222648
0.00192052
0.00124553
0.00514105
0.01873374
0.02571183
0.01642672
0.01681411
-0.00350707
0.00582153
0.00641537
0.00206275
0.0087257
-0.00206092
-0.00215135
0.00084015
-0.0142535
-0.02301416
-0.02551343
-0.01895816
-0.02659119
-0.02085479
-0.00462326
0.0036036
-0.00215986
-0.00339929
-0.00595629
-0.00279088
0.01111509
0.02068582
0.01749883
0.00523059
0.00482067
0.03228607
0.04155033
0.04386976
0.0201795
0.01846459
0.00543091
-0.00150331
0.00690222
0.01013132
-0.01081506
-0.02005881
-0.01382227
-0.00132781
-0.02223259
-0.01672122
0.00259775
0.00020774
-0.00295817
0.0053004
0.01351111
0.00493289
0.01635918
0.00276336
-0.01055832
-0.01094669
-0.0090867
-0.00877415
-0.01168347
-0.00014901
0.00919452
-0.00442539
-0.00720981
0.00536452
0.00428948
-0.00687488
-0.00943309
-0.00364995
0.02349194
0.02789886
0.02470482
0.01424943
0.0001381
0.00090072
0.01109821
0.02160409
0.0139446
0.0108006
0.0098838
0.00579219
0.00812333
0.01788666
0.01991307
0.02356847
0.0206846
0.02001163
0.00077433
-0.01424147
-0.02755209
-0.02739205
-0.01371704
-0.00176659
0.01531376
-0.00422609
-0.00841539
-0.00113834
0.00222422
0.00630475
0.00960064
0.00529362
0.01656951
0.00683087
-0.00606959
-0.00821681
-0.01068916
0.01099951
0.01384598
-0.00664675
-0.02002374
-0.00349479
-0.00076099
0.00139473
0.01206024
0.02061528
0.02095897
0.02045322
0.03404251
0.0211835
-0.01234131
-0.02424476
-0.00646489
0.01130269
0.01513467
0.00430934
0.00375379
-0.00841152
-0.01690186
-0.0013194
0.00787915
0.01171961
0.01880257
0.02368406
0.00456698
0.00938478
-0.00143314
-0.00316611
0.00479795
0.00353226
0.00558886
0.00636026
-0.00195712
0.00872983
0.00745674
-0.01241941
-0.02505643
-0.02288024
-0.00930497
-0.00547205
0.01487789
0.01944018
0.00857555
0.00101728
-0.0074052
-0.00498959
0.00412826
0.00858334
0.00918886
0.00589612
0.00407068
0.00655403
0.01824812
0.03304098
0.01904841
0.00925513
-0.00437644
-0.01338752
0.00079375
0.00457003
0.00471405
-0.01531889
-0.01977597
-0.0110457
-0.01661913
-0.01468192
-0.00870078
-0.01539333
-0.01139848
-0.01352675
-0.00582857
0.0012885
0.01048829
0.01081654
0.00467849
-0.00584097
-0.01769118
-0.00682925
0.00458514
0.00127582
-0.00085348
-0.00790064
-0.01528487
-0.00066979
0.01383605
-0.00125052
-0.01009389
-0.00415729
-0.00043314
0.01236774
0.0166472
0.0111126
0.00031494
-0.00695395
-0.00080957
0.0148722
0.01030317
0.00849364
0.00569758
-0.00372726
0.02059438
0.02179994
0.01773446
0.02280013
0.02026019
0.01768505
-0.0045297
-0.00966151
-0.02192039
-0.02501678
-0.01746454
-0.00093336
0.0079035
-0.00021019
0.00141461
0.01276216
0.00749054
0.02442649
0.01281896
0.00996554
0.01251118
0.0025423
0.00844913
0.00523637
0.00197293
0.01174594
0.0107938
0.00318564
0.00189236
0.00938223
-7.881663e-05
-0.00050245
0.01507116
0.00487032
0.00612247
0.02544163
0.02635706
0.01347443
-0.00870163
-0.01053667
-0.01071532
0.00939234
-0.00091236
-0.01167548
-0.01032616
-0.02246078
-0.02281814
-0.00697349
0.00804759
0.02668491
0.02832472
0.02038806
0.00463464
0.0003105
0.00635891
0.00461107
0.00946107
0.01016104
0.01814217
0.01214604
0.0099524
0.01838928
0.01697455
-0.00776448
-0.01907477
-0.02123114
-0.00455742
-4.855054e-05
0.01299659
0.01380831
0.01343425
0.00295863
-0.01656427
-0.01229102
0.00150691
-0.00120763
0.00813074
0.00628536
-0.00494082
0.0049763
0.0126765
0.00757351
0.0038025
0.00737861
-0.00481923
-0.00616782
0.00350571
0.01068796
0.01571826
0.00375035
-0.01084303
-0.00271462
-0.00844254
-0.00241613
-0.00921436
-0.01154677
-0.01007614
-0.01977525
-0.00178981
0.01440582
0.01636458
0.01261129
0.01416595
-0.01337875
-0.02833441
-0.01239796
0.01049044
0.00563395
0.003451
-0.00658274
-0.01158077
-0.00599075
0.0109061
0.02044794
-8.142322e-06
-0.01440841
-0.00969512
0.00697715
0.01747203
0.01107198
-0.0067047
-0.02582351
-0.01134631
0.00944048
0.01057469
0.01111574
0.00933784
-0.01157208
0.0126338
0.01688814
0.00513248
0.01480481
0.02043335
0.00544413
0.00035889
-0.00183899
-0.00547645
-0.01416602
-0.01402654
-0.00425819
0.01358124
0.00411082
0.00191956
0.00941503
0.01766409
0.04382636
0.02697217
0.00699696
0.00119402
0.01379062
0.01035642
0.00626493
0.01706558
0.02193061
0.01029564
0.01353143
0.00991305
0.00326538
0.00455806
0.00350323
0.01832793
0.00345976
0.00990367
0.0279882
0.02147617
0.00064645
-0.01342777
-0.00800826
-0.00517771
0.00913709
-0.00743621
-0.00788668
-0.00691451
-0.01536132
-0.01025263
0.00398135
0.0117603
0.02099323
0.02724596
0.01643287
-0.00457606
-0.01151016
0.01153718
0.02577787
0.02335662
0.01219177
0.01275213
0.01844582
0.0167857
0.00566108
0.00268615
0.00274569
-0.00413324
-0.00714069
0.00649193
0.00846481
0.00575622
0.00844165
0.01514344
0.00718813
-0.0009482
-0.00891304
-0.00031092
-0.00405619
-0.01961803
-0.00374667
-0.00441876
-0.0047425
-0.00987268
-0.01122076
0.00610074
0.00445022
-0.00218833
-0.00283599
0.00164232
0.01079973
0.01371185
0.00999063
-0.00524141
-0.01230753
-0.00924743
-0.0070009
-0.00044621
-0.00342116
-0.00445826
-0.01168973
0.01013265
0.01741195
0.0354594
0.02576705
0.00492803
-0.01471892
-0.02778671
-0.02647599
-0.00583339
-0.00075966
0.00625327
0.00944509
-0.00257231
-0.00710785
-0.0070947
0.01254904
0.00450636
-0.01726368
-0.01768202
-0.01783669
0.01568565
0.01361576
-0.01708994
-0.03160983
-0.01529523
0.00172652
0.00199969
-0.00694843
-0.00271666
-0.01747319
0.00426026
-0.00506006
-0.00966717
0.00331929
-0.00156096
-0.00482237
0.00785506
0.0060846
0.00653873
-0.01169305
-0.01771971
-0.02185664
-0.00514738
0.00497721
-0.0002031
0.0018605
0.01412398
0.02412715
0.01882566
0.01076306
0.00109026
0.01273091
0.00872002
0.00110375
0.01740436
0.03404929
0.03046724
0.0219536
0.01445606
0.01092543
0.00587012
0.01024924
0.01183007
0.00734471
0.02019486
0.02522707
0.03078811
0.0158515
0.00155619
-0.01097576
-0.00372788
0.00090474
-0.00687598
0.00324171
0.00465856
-0.00710286
0.00746309
0.01913369
0.01780226
0.01815472
0.02443318
0.02573122
0.01464432
-0.00086901
0.00180169
0.02657745
0.02163331
0.00822356
0.00683422
0.01292671
-0.00322089
-0.00452216
0.00162106
-0.00981962
-0.01109292
-0.00233005
0.00519885
0.00343237
0.01078567
0.01500725
0.02522258
0.01421073
0.01144375
0.00277027
0.00612025
0.00042356
-0.01573551
-0.01970737
-0.02275617
-0.01356107
-0.01904063
-0.02550081
-0.00894158
-0.00388301
0.00709324
0.01157402
0.00773119
0.00206071
0.01438982
0.01805761
-0.00431822
-0.00418326
0.01050953
-0.00361864
-0.01135779
0.00298096
0.01451116
0.01666134
0.02368956
0.01764228
0.01635166
0.03197334
0.01140162
-0.00038156
-0.01356214
-0.02026602
-0.01356226
-0.01182708
0.00159748
0.01596054
0.01066865
0.00826771
0.00176782
-0.00516191
-0.0071927
-0.02212504
-0.02334842
-0.00891394
0.01347812
0.01210431
-0.00753065
-0.02938964
-0.01772893
-0.00034192
0.00014628
0.00190964
-0.00930004
-0.02061065
-0.00294985
-0.00658698
-0.01274799
-0.0038709
-0.02737006
-0.01484679
0.00662931
0.00610753
0.01128792
-0.00080516
-0.02299406
-0.02363778
-0.008956
-0.00354178
-0.0098303
-0.00761061
0.0041331
-0.002441
-0.00096366
0.00512223
-0.01119268
-0.00467915
0.01075881
0.00657711
0.01288385
0.04245534
0.0424897
0.02217193
0.01400266
0.01186476
0.00650801
0.00947157
0.01020612
0.01403582
0.0215174
0.02564395
0.02362871
0.02284272
0.01705433
-0.00026304
0.00013396
-0.00042145
-0.01075479
-0.00940598
5.4085212e-06
0.00490366
0.02012804
0.01848178
0.00917622
0.00700525
0.00014796
0.00529394
0.00337286
-0.00355876
0.0088091
0.02506832
0.01580248
-0.00444952
-0.01084924
-0.00847272
-0.00764696
0.00905898
0.01060126
-0.00070921
-0.00497253
-0.00501178
0.00532381
-0.00260954
0.00890775
0.0141435
0.02566776
0.01889465
0.00724695
0.00099323
0.00364664
0.00129553
-0.00492622
-0.01134972
-0.01474203
-0.01172241
-0.00720818
-0.02106009
-0.0273461
-0.01657718
-0.00847058
-0.00208894
0.00727003
-0.00647224
-0.01105368
0.00456963
-0.00808669
0.00598579
0.0225617
0.00731944
-0.01398769
-0.01522504
-0.0060876
0.01315942
0.0309702
0.02406969
0.02164027
0.02415484
0.01593271
-0.00514447
-0.01775404
-0.01926022
-0.01453854
-0.00771988
0.01407428
0.02052755
0.01101521
0.01618164
-0.00016346
-0.00907419
-0.0237167
-0.04110806
-0.03163539
0.00751555
0.00918427
0.00037763
-0.0023045
-0.0246472
-0.01217049
0.01246298
0.01716282
0.02788563
-0.00149188
-0.01702549
-0.00763147
-0.01026101
-0.01336639
-0.01162005
-0.02705542
-0.01192862
-0.00601199
-0.00103204
0.0039608
-0.01294165
-0.03485468
-0.01199851
0.00753642
0.00068596
-0.01588758
-0.00997059
-0.00014591
-0.01014396
-0.01426139
-0.01419109
-0.01045618
-0.00589534
0.00731527
0.02429601
0.03189688
0.04720054
0.04056262
0.03197149
0.0129108
0.00431074
0.00465532
0.00605172
0.01072793
0.00178089
0.01305964
0.0248538
0.00668166
0.00987958
0.01039488
0.00404874
-0.01366507
-0.02332245
-0.02234403
-0.02369873
-0.00537248
0.00553021
0.01363649
0.00410599
0.00341118
-0.00044722
-0.00397637
-0.00227618
0.01254827
0.01829736
0.02259942
0.01578521
0.00233145
-0.00078714
-0.0107073
-0.01617699
-0.00787744
0.00080466
0.00663141
0.0030183
0.01160869
0.00724678
-0.00963991
-0.01588951
0.00587212
0.00933865
0.01433853
0.00882628
0.00611536
0.01187732
0.01119748
0.00863305
0.0108625
-0.0002669
-0.01017082
-0.00181164
-0.00440583
-0.00960179
-0.02614919
-0.01521557
-0.02255851
-0.02484156
-0.00040443
0.00450866
-0.02326346
-0.0221117
-0.01251041
0.00250692
0.0145035
-0.0033327
-0.0224748
-0.02204061
-0.026593
-0.01453862
0.01289432
0.01405512
0.02011985
0.01760184
0.0046761
-0.01200705
-0.02233263
-0.02830797
-0.01737234
-0.00495555
0.01642163
0.02479423
0.01127951
0.01661568
0.01078485
-0.0130978
-0.03063425
-0.04215087
-0.0319553
-0.00292595
0.00290519
-0.00140075
-0.00513605
-0.01462307
-0.01861474
0.0094565
0.02420304
0.03199315
0.00625299
-0.01700634
-0.00579421
-0.00205682
-0.00504306
-0.01205461
-0.01666975
-0.00597168
-0.00278842
0.00516028
-0.00230936
-0.02069204
-0.0381802
-0.01875961
0.00546948
0.00361162
0.00022412
0.00057496
-0.00855261
-0.0137552
-0.01590285
-0.00607352
-0.00656395
-0.0122811
-0.00180739
0.02029049
0.03185296
0.04602514
0.04393164
0.01760144
0.00238623
0.00934993
0.00309516
0.00258294
-0.00341148
-0.01414024
0.00049854
0.00069776
-0.00989632
0.00413905
-0.00055074
-0.00372617
-0.01968617
-0.04082043
-0.03271031
-0.01793469
-0.00812287
0.0027912
0.0062283
0.00246072
0.00762693
-0.00669257
-0.00325839
0.00262834
0.00418724
0.02176788
0.02611238
0.0238721
0.01290658
-0.00249315
-0.01117296
-0.00231912
-0.00256949
-0.00605852
0.00021187
0.00246016
0.01647807
0.02530417
-0.0057937
-0.00479912
0.01618446
0.01718231
0.01204463
0.00507099
0.00489499
0.01836776
0.02662152
0.02275895
0.01704283
0.01535792
0.00723473
-0.00315431
-0.00691462
-0.00711513
-0.02224959
-0.00536913
-0.00207952
-0.00805388
-0.01364081
-0.00821202
-0.00332097
-0.00860276
-0.02083056
0.00394213
0.01105509
-0.00198465
-0.02048817
-0.03370969
-0.03252604
-0.02839043
-0.0181301
0.00023119
0.0125521
0.02084501
0.00962596
-0.01145376
-0.02432751
-0.01965415
-0.01182193
-0.01058924
-0.004171
0.02246949
0.01605246
0.00948386
0.00961505
-0.00864726
-0.02892819
-0.02030262
-0.01859864
-0.01084384
-0.0042957
0.00043738
-0.00868775
-0.0196918
-0.01246356
0.00902541
0.02126277
0.02696471
0.00166781
-0.00705965
-0.01137739
0.01149556
-0.00675926
-0.0205758
-0.01246033
-0.01465383
-0.00099017
0.01471951
-0.00276462
-0.02420023
-0.0406493
-0.01783342
0.00191488
0.01727298
0.00792475
-0.00861208
-0.00348482
-0.02042506
-0.01305115
-0.00500103
-0.02261129
-0.030966
-0.01810955
0.00367098
0.01733452
0.02610116
0.02532786
-0.00922067
-0.01460371
-0.00148545
-0.01015586
-0.01532053
-0.01830719
-0.01535571
-0.01046428
-0.01735649
-0.00300431
0.00047344
0.00333731
0.00462551
-0.0179826
-0.01966594
-0.02704227
-0.00924267
0.0052691
0.00929463
0.01120377
0.00498005
0.00156317
-0.0001727
0.00147737
0.0006839
0.00098013
0.01683505
0.02551037
0.02511708
0.01345686
-0.00154651
-0.00687278
0.00328391
-0.00355491
-0.00559861
0.01235004
0.01497968
0.02207347
0.02168012
0.00962712
0.01636875
0.02146647
0.00489273
0.00334453
0.00432731
0.00430917
0.01920216
0.03383372
0.02549591
0.01908577
0.0159364
0.01140478
0.00019518
-0.00849609
-0.00417277
-0.02800733
-0.02913066
-0.02029458
-0.0216339
-0.01632104
-0.01586707
-0.00228376
0.00323025
-0.01293744
0.00727239
0.02094835
0.00900934
0.00553166
-0.0166187
-0.03442908
-0.02252816
-0.01287645
-0.01037405
0.00595761
0.01028172
0.0073013
-0.0074166
-0.0145278
-0.0205225
-0.00490945
0.00597566
-0.00358754
0.00763316
0.01611573
0.00096442
-0.00219468
-0.01056426
-0.01418094
-0.00147436
0.00205992
-0.00864691
-0.0117069
0.00946328
0.01625608
-0.00173695
-0.01028451
0.00594697
0.02065491
0.02271008
0.00541846
-0.0028623
-0.00363232
0.00741786
0.0125145
-0.00143335
-0.00856006
-0.01519305
-0.00579701
0.00884348
-0.01371312
-0.02542427
-0.03662628
-0.01172967
0.00614221
0.01058705
-0.00174967
-0.00327639
0.01360064
-0.00948349
-0.01285086
-0.01415845
-0.02580969
-0.03835341
-0.04344643
-0.00610193
0.00680363
0.02072648
0.01124188
-0.02497804
-0.0170793
0.00143307
-0.00925397
-0.02950156
-0.01732237
-0.02136225
-0.01747799
-0.01138729
0.00750667
-0.0061072
0.00735734
0.00138618
-0.00311116
0.00451529
-0.00524805
0.00546569
0.00361235
0.01186222
0.01840991
0.01688586
0.00778357
0.01557614
0.02246456
0.01568541
0.01051944
0.01864117
0.02374254
0.03001602
0.01286942
-0.00156184
0.01490005
0.01605551
-0.0043432
-0.00800052
-0.00811565
-0.00695495
0.01106914
0.00814377
0.00512167
0.00564151
0.01581324
0.00783449
0.01789079
0.02478663
0.0193274
0.03646855
0.03542516
0.01444085
0.01801812
0.00445043
-0.00588673
-0.00200941
-0.00068806
0.0158792
0.00121915
-0.02282592
-0.02554948
-0.0257433
-0.00994033
-0.00660271
0.01288933
0.02385343
0.00598342
0.00695588
0.0259489
0.03340828
0.02221831
0.00228487
-0.01462477
-0.01123415
0.00475536
0.00448427
0.00871184
0.00948224
-0.00733262
-0.01058787
-0.01677778
-0.01644075
0.00171706
0.00679993
0.01618713
0.01820159
0.00933817
0.00350551
-0.01256108
-0.01979089
-0.02017902
-0.01512082
-0.00683256
-0.0048357
-0.00741452
0.0027243
0.00162838
-0.00104442
-0.00504866
0.00282351
0.01484512
0.01711388
0.00548738
-0.00604739
-0.00092526
0.01290367
0.02717945
0.02178179
-0.00484133
-0.02068428
-0.01070566
-0.00088053
-0.00312207
-0.01722154
-0.01684565
0.004266
0.00113208
-0.00068338
0.00746048
0.02292002
0.02686734
-0.00013175
-0.0158179
-0.00491057
-0.014643
-0.03729721
-0.04975599
-0.01551303
0.00399228
0.00953229
-0.00101616
-0.02152986
-0.00393147
0.00500123
-0.01126858
-0.02723627
-0.02034665
-0.03347411
-0.03349065
-0.0261884
-0.01994546
-0.00989045
0.00416693
-0.0014617
0.007745
0.00322598
-0.00312189
-0.0052748
-0.00813765
0.01430588
0.02017932
0.0140119
0.0056228
0.02786868
0.02929741
0.0154373
0.00766302
0.017666
0.02467673
0.03166516
0.01517735
-0.0024533
0.00647883
0.00855335
-0.00587125
-0.01256286
-0.01938436
-0.01902084
-0.01170381
-0.00496058
0.00291595
0.01219105
0.03511719
0.03333249
0.03485696
0.03080766
0.02829903
0.02638403
0.01608722
0.00667815
0.00554786
-0.00402795
-0.00436965
-0.00494517
0.00123802
0.00045602
-0.00408217
-0.02088267
-0.0202884
-0.02816292
-0.02260375
-0.00145396
0.0117254
0.02472861
0.02399796
-0.00473034
0.00926381
0.01699578
0.00768244
-0.02010933
-0.01140363
-0.00642478
0.00869704
0.00896592
0.01196469
0.00599466
-0.01313581
-0.01205624
-0.01953653
-0.01953294
-0.00375051
0.00386987
0.0215577
0.02674741
0.02185417
0.02603794
0.00629305
-0.01260356
-0.02634303
-0.01932234
-0.01570226
-0.00257384
-0.00270398
-0.00932286
-0.01083534
-0.00517146
-0.00361864
0.01177924
0.01213452
0.00554805
-0.00378128
-0.01187506
0.00062125
0.01711193
0.03039307
0.02482617
0.0001933
-0.00349684
0.00971977
0.00184152
-0.00059591
-0.00986572
-0.00506571
0.00784643
-0.00947556
0.00505843
0.02419713
0.04227137
0.01743588
0.00024993
-0.0189483
0.0051415
-0.00198911
-0.02685191
-0.04885342
-0.03466564
-0.00249225
-0.00528392
-0.00071713
-0.00955537
-0.0020089
-0.00172082
-0.01184022
-0.00964253
-0.02252379
-0.04122434
-0.04252451
-0.04213152
-0.01555404
-0.01064691
-0.0057635
-0.00039424
0.00609605
-0.00532625
-0.01383041
-0.00672332
-0.01056506
-0.0057589
0.01580899
0.01192328
0.012942
0.02766967
0.01238759
-0.00169681
-0.00127368
0.00411332
0.01298086
0.02022941
0.01026725
0.00262964
0.00365322
0.00170043
-0.00533413
-0.01584791
-0.01958252
-0.02133925
-0.01696234
-0.01101291
-0.0018507
0.01798161
0.0341777
0.03486102
0.0372247
0.02034594
0.00015846
-0.00595309
-0.00611252
-0.00523857
-0.00110589
-0.0015396
0.00787736
-0.00301275
-0.00356341
-0.00344518
-0.00696656
-0.01852995
-0.02159237
-0.0149911
-0.01492394
-0.00478407
0.00351529
0.01222552
0.01692769
0.00511139
0.00860296
0.01080082
-0.02367751
-0.04454151
-0.03215797
-0.01264332
0.00437507
0.00201508
0.01041598
0.0065335
-0.00189313
-0.00483732
0.00760192
0.00074096
-0.0008385
0.01200513
0.01802729
0.02428569
0.02547853
0.03316966
0.02170102
-0.00217361
-0.00534369
-0.01140008
-0.01103093
-0.00105462
-0.01066179
-0.0077115
0.00404387
0.00912335
0.00636456
0.01513329
0.01184122
0.00651668
0.00236238
-0.01315516
0.00356702
0.00071531
0.01743104
0.02248117
-0.00835739
-0.01054643
0.01393931
0.02025436
-0.00112561
-0.00832906
-0.00687483
0.00392645
0.00128446
0.0167072
0.02435908
0.03234738
0.02110346
0.00484597
-0.02148056
-0.00375807
0.00363534
-0.02057811
-0.05640019
-0.04932601
-0.00517131
-0.01389183
-0.00524626
-0.00727495
-0.00427643
-0.00443136
0.00014726
0.0018746
-0.01169263
-0.0264944
-0.02501078
-0.01956878
-0.01131355
-0.00862105
0.00091286
0.0003447
0.00908533
0.01820849
0.0156565
0.01581003
0.0027873
-0.00153919
-9.569688e-05
-0.00059587
0.00059325
0.01141989
0.00207092
-0.01370548
-0.01122788
-0.0039601
0.01107313
0.02451419
0.02276836
0.02021983
0.01357911
0.01814387
0.00547288
-0.0099663
-0.00728477
-0.00401641
-0.00264774
-0.00590371
-0.00759308
0.00852373
0.02942601
0.02109075
0.02099219
0.017406
-0.00021836
-0.0193625
-0.01499383
-0.00462771
-0.00731628
-0.00573982
-0.00570475
-0.00789075
-0.00741865
-0.0011125
0.00574567
0.003845
-0.01444833
-8.120792e-05
0.0038053
0.0032093
0.00211395
0.00967238
0.00545529
0.00956409
0.00359312
0.00231036
-0.01976125
-0.04479716
-0.04227858
-0.03244929
-0.00539083
0.00334632
0.00844088
0.00550222
-0.00383791
-0.00282348
0.01744388
0.01102483
0.01538559
0.01966235
0.00798421
0.020405
0.02882391
0.02541253
0.016299
0.01148779
0.00961298
-0.00509232
-0.01071469
0.00151062
-0.00770044
-0.01023284
0.00875071
0.01509648
0.01180548
0.01124786
-0.00047544
-0.0107885
-0.00211018
-0.01215162
0.00974413
-0.0035154
-0.00025876
-0.00429298
-0.02465048
-0.00921773
0.00806076
0.01754315
0.00422554
-0.01077731
-0.0031841
0.02375381
0.02832134
0.02867212
0.02777874
0.02519984
0.01222238
-0.00085869
-0.02328366
-0.01955914
0.00089573
-0.00897583
-0.03933758
-0.02632951
-0.01138148
-0.0111151
-0.00932544
-0.01699373
-0.02028244
-0.00326335
0.00221881
0.00354887
0.00847456
-0.01008105
-0.01297369
-0.00108159
0.01891522
0.02747415
0.01989602
0.02262922
0.03593865
0.03479057
0.03163025
0.01860101
0.00610275
-0.0062984
-0.0163765
0.00080088
0.00299203
-0.000277
-0.00062718
0.00012472
0.00376414
0.02004381
0.03147444
0.02140689
0.02388212
0.02699643
0.0209828
0.02048596
0.01444573
0.00305408
0.00440589
0.01368709
0.00643642
-0.00685177
-0.00752393
0.00038531
0.01166546
0.01127254
-0.00123055
0.00188928
-0.00305317
-0.02321143
-0.01071753
0.00060055
-0.01089695
-0.01408008
-0.01526914
-0.01760378
-0.01811553
-0.00839309
0.00658684
0.00759678
-0.0119647
-0.00745257
-0.00573456
0.01082956
0.01361536
0.0124586
0.00692689
0.00368429
0.00059295
0.00412376
-0.00085797
-0.02295798
-0.03313501
-0.02971243
-0.01189857
0.01454669
0.00194451
0.00183182
0.0053058
0.01138117
0.01837618
0.02167664
0.038417
0.02890049
0.00102104
0.00823097
0.02200052
0.02505458
0.02494362
0.0196798
0.01233076
0.01730209
0.01142172
0.00267436
-0.00737506
-0.00549596
-0.00201755
0.00211961
0.00818246
0.01019944
-0.00013287
-0.01254272
-0.01112495
-0.01160163
0.00755726
0.00346628
0.00649211
0.0003303
-0.02273374
-0.00264839
0.01063401
0.02131568
0.01838659
0.0034409
-0.00555398
0.01591261
0.02727183
0.03410882
0.03099028
0.00917816
-0.00590683
0.0062659
-0.00820514
-0.00354155
0.00784556
0.00284753
-0.02142265
-0.01471716
-0.01424865
-0.00382489
0.00166701
-0.0099918
-0.00472299
0.00555156
-0.00407081
0.01066569
0.01186848
-0.01604372
-0.02454684
0.00424128
0.04654349
0.04636966
0.03891137
0.02808799
0.01779842
0.01488309
0.01528511
0.01452009
0.00754907
-0.0015461
-0.00828701
0.01211478
0.0073025
0.00063839
-0.00103397
0.00501407
0.00703482
0.02155104
0.025273
0.02116219
0.01432448
0.0168698
0.01041319
0.01356112
0.00475479
0.00242311
0.00627694
0.00868388
-0.00473376
-0.00459757
3.248232e-05
0.00018042
0.00203714
0.00555825
0.00056708
0.00461759
-0.00240349
-0.01838444
-0.00758658
0.00112519
-0.00296123
-0.0095459
-0.01298864
-0.01919649
-0.02895221
-0.00898881
0.00214875
0.00415707
-0.01149369
-0.01142477
-0.01706263
0.00217136
0.00854803
0.00943041
-0.00043147
-0.00167667
-0.00066784
0.00444864
-0.01380392
-0.02672934
-0.02089741
-0.02644599
-0.01622517
0.01772701
-0.00327903
-0.01256026
0.0023587
0.01198095
0.01206465
0.01433306
0.02833239
0.01786651
0.00051326
0.0087235
0.01742811
0.01549751
0.01459568
0.01719276
0.01452936
0.02694358
0.02095283
0.01325624
0.00113381
-0.00268483
-0.01524392
-0.01723334
-0.00650317
-0.00571266
-0.01163097
-0.01952725
-0.02171651
-0.02395575
-0.00396523
0.00299075
0.00675984
-0.00878213
-0.01629921
0.00512638
0.02377425
0.03425162
0.0242474
0.01868458
-0.01163123
-0.00262921
0.01300799
0.01333266
0.01050518
-0.00804946
-0.00405445
0.00038324
-0.01235767
-0.00563227
-0.00331642
-0.00940987
-0.02013245
-0.01752442
-0.02041308
-0.0056576
-0.0170025
-0.00887983
-0.00940432
-0.00822664
-0.00825158
0.01084498
0.01386348
-0.00533975
-0.01288988
0.00829614
0.02600599
0.02598562
0.01614727
0.00114402
-0.00592759
-0.00652949
-0.00050148
0.00012737
0.0001067
0.00500492
0.00832958
0.01790981
-0.00081911
-0.00096372
0.01125898
0.01011227
0.00888765
0.02355137
0.01461039
0.00607878
0.00346204
0.00461296
0.00219096
0.00150375
-0.01275542
-0.00742118
-0.00107891
-0.02443993
-0.0182176
-0.00300735
-0.00996352
-0.00624385
-0.0058982
0.00734366
0.00025385
-0.00297154
-0.00011531
-0.0082599
-0.00550149
0.00644992
0.00352749
-0.00247304
-0.00838784
0.00166681
-0.00145374
0.00051405
0.00349102
0.00461061
-0.0137752
-0.01779148
-0.01686597
-0.01260364
-0.01382148
-0.00833554
-0.00743759
-0.00438379
-0.00400501
-0.0037134
-0.02327988
-0.03482939
-0.02336843
-0.02375038
-0.02144732
0.00926325
0.0081484
-0.02065606
-0.01540108
-0.00298181
-0.00550418
-0.01311968
0.00053361
0.0064795
-0.00202829
0.00522486
0.00608359
0.01016941
0.00794694
0.00882122
0.01459203
0.01949988
0.00943591
0.01143113
0.00180724
0.0006649
-0.02786416
-0.02798366
-0.00650944
-0.01546683
-0.02739153
-0.03518366
-0.04321755
-0.03724528
-0.00421645
-0.00141792
-0.00895238
-0.02544714
-0.01974553
0.00896428
0.02986832
0.04076749
0.03102275
0.01696925
-0.0111985
-0.01616893
0.00363951
0.00511545
-0.00389577
-0.01423502
-0.0142728
-0.00516241
-0.02124817
-0.02219455
-0.02349493
-0.02431656
-0.01685175
-0.01134435
-0.02545863
-0.01870889
-0.01442542
-0.00497734
-0.01418539
-0.02331932
-0.01108725
-0.00115556
0.00924849
-0.0010521
-0.01392314
-0.00847628
-0.013362
-0.01032309
-0.01788945
-0.02448243
-0.01486122
-0.01734167
-0.01652013
-0.00541385
0.00278766
0.00264716
0.00690756
-0.00356954
-0.01377814
-0.00736654
0.01117492
0.01627349
0.01244806
0.02025863
0.00877367
-0.00071271
-0.00192397
0.00156232
0.00468123
-0.00194346
-0.01314099
-0.01837968
-0.02125366
-0.02587318
-0.017926
-0.01711479
-0.02056213
-0.00865631
-0.01059219
0.00015793
-0.00119489
-0.00126727
-0.00290332
0.00328602
0.00093917
0.00344669
0.01006988
0.00702828
-0.000308
0.0031737
0.00825548
-0.00292806
0.00512101
-0.00589181
-0.00975377
-0.01639038
-0.01429784
-0.00397312
-0.00833821
-0.01082288
-0.0216965
-0.01693638
-0.00788534
-0.01270339
-0.01582805
-0.02996986
-0.04739719
-0.03604408
-0.00916237
0.0076939
0.00800373
-0.01944817
-0.02002436
0.00717656
-0.02023527
-0.02634535
-0.02054729
0.00060423
-0.00560411
-0.00644968
0.00094353
0.01119799
0.0061615
0.00195473
0.00571058
0.00856272
0.00207962
-0.00225512
-0.00510165
0.00358269
-0.00996217
-0.01840954
0.00360502
-0.00688553
-0.02066242
-0.02624607
-0.03711919
-0.0326641
-0.00138694
-0.01266606
-0.01775749
-0.01476786
-0.01319194
0.00642514
0.01865828
0.03773121
0.02705589
0.01795197
0.004751
-0.00365464
-0.00288052
0.00833397
0.00931591
-0.01736337
-0.02063867
-0.01723859
-0.02080777
-0.01754574
-0.03032454
-0.01447419
-0.01528348
-0.00586044
-0.01378099
-0.01297178
-0.00824238
-0.01884459
-0.02201545
-0.03109141
-0.02653351
-0.0245109
0.00525334
0.00219062
-0.01427973
-0.01233738
-0.03623584
-0.0335247
-0.02775379
-0.02336831
-0.0107461
-0.01560821
-0.02364065
-0.01895202
-0.01424463
-0.01045483
-0.00303016
0.00100862
-0.002803
0.00671933
0.01505718
0.0115513
0.00718717
0.01823476
0.01169218
0.0002182
-0.00174468
-0.00114847
0.00159716
-0.00359044
-0.01568437
-0.03302977
-0.0264385
-0.0247308
-0.02864836
-0.02307302
-0.01923108
-0.01169629
-0.01466708
-0.01043308
-0.00463869
0.00091813
-0.00224122
0.00677541
0.01263183
0.00254931
0.00909104
0.01973953
0.02367327
0.01145258
0.00956549
0.01431905
0.00178443
-0.00618449
-0.01037125
-0.01271877
0.00237533
-0.0092521
-0.01377306
-0.0169511
-0.03641268
-0.04199437
-0.01843381
-0.02294739
-0.02526053
-0.0304566
-0.04247255
-0.03904562
-0.01757618
0.00416349
-0.00382522
-0.02781121
-0.02614995
0.00057031
-0.01598638
-0.0302922
-0.01912433
-0.01833146
-0.02298784
-0.02009558
0.00093347
-6.621739e-05
-0.01135356
-0.00954349
-0.01017995
0.00180882
0.0014185
-0.00930759
-0.01663965
-0.00313224
-0.00663396
-0.00988809
0.00168943
0.00013821
-0.01786607
-0.0186262
-0.02955787
-0.02661271
-0.0170944
-0.0109435
-0.01398207
-0.00907592
-0.01942796
-0.01020193
0.01367966
0.02756301
0.0108324
0.00947673
0.00040321
-0.00985251
-0.00235939
0.01769642
0.01992323
-0.00080266
-0.00249489
-0.01332665
-0.005442
-0.00651054
-0.02911331
-0.00272781
-0.0089423
-0.00707419
-9.233392e-05
0.00269385
0.00028136
-0.01247791
-0.01888471
-0.03268181
-0.03115287
-0.02208706
0.00538861
0.0103127
0.00698379
-0.00752039
-0.03382549
-0.01749765
-0.01814965
-0.00645824
1.0768267e-05
-0.00560477
-0.00789372
-0.01129923
-0.01116014
0.00036868
0.00977559
0.01860849
0.0177038
0.01082066
0.01325763
0.00244697
0.01660801
0.02598672
0.00469965
-0.00181662
0.0008586
-0.00126085
-0.00557162
-0.00939349
-0.0255777
-0.03603806
-0.03844871
-0.04359655
-0.03794469
-0.02300831
-0.01774718
-0.01664615
-0.01634719
-0.01616107
-0.00888565
0.00216221
0.01305341
0.01058797
0.01103996
0.00672017
0.00938916
0.03262955
0.04445316
0.03546909
0.02800434
0.01629983
0.00111905
0.00495382
-0.00102408
-0.01101917
-0.00024845
-0.00572073
-0.00932818
-0.02097334
-0.03970185
-0.05785474
-0.03078805
-0.02704257
-0.02691786
-0.02320422
-0.02526752
-0.02868462
-0.02934954
-0.01908828
-0.02297807
-0.03056172
-0.01455341
0.00021665
-0.01400093
-0.02528317
-0.00993352
-0.01128135
-0.00455546
-0.00214562
-0.00122468
-0.00701127
-0.00376737
-0.00347098
-0.00625608
0.0020645
0.0063609
-0.00935059
-0.00967506
-0.01266212
-0.01600164
-0.0143607
-0.014217
-0.00142616
-0.02249927
-0.02215184
-0.02297677
-0.02071316
-0.01811671
0.00319494
-0.00313874
-0.0098543
-0.02210449
-0.00560501
0.0060723
0.0066484
-0.002967
-0.00311253
-0.00547943
-0.01311928
-0.01573452
0.00164887
0.001282
-0.02501219
-0.0254802
-0.01962587
-0.00946766
-0.01203409
-0.03007375
-0.00336122
0.00239871
-0.00707993
-0.0018894
0.01849015
0.02117705
0.00712968
0.00343568
-0.02089391
-0.02778772
-0.01089844
0.00753569
0.01320844
0.00660303
-0.00784244
0.00239569
0.00523788
-0.00427679
0.01116145
0.01055397
0.00708086
0.00489083
0.01357176
0.00774661
0.00892504
0.01484607
0.01744898
0.01999528
0.01703242
0.01948006
0.0292841
0.03922557
0.02408702
0.0155549
0.0114644
0.00875656
0.00669631
0.00672219
-0.00092505
-0.01399267
-0.03080706
-0.03846123
-0.03374016
-0.02603467
-0.02755252
-0.01910652
-0.01011446
-0.00813089
-0.00704609
-0.00442779
0.01024702
0.02933278
0.02666395
0.02172297
0.02414917
0.02872169
0.04962983
0.06084061
0.04799461
0.02913794
0.0221597
0.02049947
0.02139929
0.02491025
0.00632458
-0.00087049
-0.00564732
-0.01575866
-0.01169003
-0.03138879
-0.04671027
-0.03817317
-0.02740832
-0.01951265
-0.01994959
-0.00977629
-0.02295115
-0.02718671
-0.02228091
-0.02711459
-0.0263195
-0.01126104
-0.01450265
-0.01643792
-0.01179981
-0.00868357
-0.01268105
0.00924411
0.00747337
-0.00788334
-0.01740508
-0.00953931
0.00604564
0.0006521
-0.00648655
0.01016752
0.00622359
-0.00438137
-0.01389787
-0.02096371
-0.02109811
-0.00771083
-0.00062975
-0.00572501
-0.00567332
-0.00260546
-0.01269699
-0.00559841
0.002319
-0.00688261
-0.00509772
-0.0067378
0.00781486
0.0072866
0.00263318
-0.00018041
-0.00102429
-0.00115114
-0.01264081
-0.02190339
-0.01462002
-0.01490574
-0.02699583
-0.03611497
-0.01783603
-0.01260383
-0.01854864
-0.02308589
-0.00922666
0.00702704
-0.00877411
-0.00195233
0.00521291
0.01106536
0.00552045
-0.00631676
-0.02326954
-0.02673432
-0.00868792
0.00698642
0.00701505
-0.01602985
-0.0264315
-0.00018921
0.00642447
0.00863598
0.02694732
0.02217662
0.00844646
0.00364774
0.02142774
0.0188494
0.0145641
0.02464578
0.03747213
0.04050286
0.03795001
0.03963626
0.04655598
0.06103701
0.05095469
0.04413553
0.04336443
0.04320959
0.03228049
0.02498812
0.02002565
0.00529231
-0.01443908
-0.03166979
-0.02318016
-0.01575175
-0.00881016
-0.0061526
-0.00468882
-0.00502712
-0.00156743
0.01119907
0.03173655
0.04030592
0.04432467
0.0387146
0.03342383
0.05159913
0.07024135
0.07110385
0.06325164
0.04209288
0.02131902
0.01985061
0.03290625
0.02189577
0.01005681
0.01237726
0.00835062
0.00460967
0.00321958
-0.02383075
-0.03112416
-0.03010212
-0.0227526
-0.01009953
-0.01815893
-0.01156606
-0.01109838
-0.00836956
-0.00862641
-0.0244721
-0.0207974
-0.02156772
-0.016812
-0.00276242
0.0003173
-0.00511616
-0.0120317
0.0008055
-0.00800109
-0.00805656
-0.01087204
-0.0052278
0.00407381
0.01044985
0.00598886
-0.00040526
0.01590137
0.00707242
-0.01154333
-0.01963773
-0.01779835
0.00854215
0.01351802
0.01110469
0.01142861
0.00385463
-0.00901033
0.0032901
0.00668118
-0.0003376
0.01533028
0.01440421
0.01264374
0.00783868
0.01633064
0.01606435
0.01500253
0.02178049
-0.00756452
-0.02771783
-0.0139806
-0.01594722
-0.0188075
-0.02948747
-0.01331078
-0.00905511
-0.01627416
-0.00725404
-0.00085705
0.00413132
-0.00243735
-0.0158197
-0.01487058
0.00036522
-0.00507077
-0.01739235
-0.02868314
-0.04140748
-0.0216746
0.00703081
-0.00542438
-0.03096091
-0.01362804
0.01274522
0.00445881
-0.00100968
0.01572192
0.02294274
0.00656187
0.00634363
0.0197606
0.02194703
0.03969121
0.04068675
0.04722001
0.05963944
0.05986468
0.04785031
0.05199196
0.06009086
0.05959972
0.06012676
0.06127402
0.05827296
0.04887664
0.03964557
0.03434363
0.02256473
0.00728767
-0.00553268
-0.01625145
-0.01554773
-0.00213492
-0.00492941
0.00190604
-0.00171277
0.01020243
0.03302937
0.04643279
0.05477778
0.05297469
0.0582931
0.05990415
0.06380288
0.07508038
0.07582083
0.07228657
0.05335873
0.03260851
0.02789466
0.03143673
0.01550425
0.0190067
0.02009201
0.00663766
0.00914134
0.01406518
-0.00367845
-0.00986344
-0.01429759
-0.01760926
-0.02293381
-0.02104846
0.00124031
0.00390307
-0.00491186
0.00451589
-0.01766844
-0.02894288
-0.02115603
-0.01392436
-0.00083651
0.00874014
0.01047161
-0.00439725
-0.00824779
0.00064082
0.00235287
-0.00011045
-0.01248844
-0.00097028
0.01751146
0.01403881
-0.00488463
0.00529785
0.00313575
-0.01235184
-0.01663032
-0.02193753
0.01418106
0.02348218
0.00686518
0.00984398
0.0159447
0.00063424
0.00368355
0.00666746
-0.00106257
0.00147968
0.01108827
0.00355473
0.00551777
0.01522061
0.01801261
0.02490578
0.01513743
-0.01265116
-0.02166074
-0.00155979
-0.00264047
-0.00591087
-0.00617559
-0.01746789
-0.00732599
0.00602144
0.00653123
-0.00014762
-0.00380109
-0.00038324
-0.02871968
-0.02575522
-0.00494619
-0.00057492
-0.01158115
-0.0217468
-0.04787727
-0.03043771
-0.00670961
-0.01529786
-0.02484111
-0.00677128
-0.00288635
-0.00637998
0.00911146
0.01491653
0.01299953
0.00322061
0.00333722
0.00800943
0.0069897
0.01588394
0.0328728
0.02928998
0.03745794
0.04300635
0.03634189
0.04348273
0.05355127
0.06071018
0.0662
0.07026605
0.06784474
0.05337176
0.04441185
0.04371016
0.03480398
0.02863291
0.01715144
0.00259902
0.00950169
0.0161413
0.00530335
0.00844039
0.01531881
0.0348159
0.04811687
0.05614975
0.05711665
0.05501366
0.07026818
0.06314468
0.05090109
0.05691323
0.07029587
0.06081447
0.04728669
0.03141427
0.01049123
0.0156049
0.0058553
0.00726606
0.03543324
0.03288895
0.02021517
0.01097814
0.00488928
0.00761735
-0.00651537
-0.00522722
-0.01664691
-0.01751719
-0.01050135
0.01195615
0.00294939
-0.00349847
-0.01095959
-0.03254285
-0.02745129
-0.0212551
-0.00952916
0.00473567
0.00635557
-0.00753323
-0.00434254
0.0022039
0.00550723
-0.00735246
-0.02372497
-0.00938076
0.01521593
0.01928343
0.00198177
-0.00442181
-0.00773188
-0.01159239
-0.01407916
-0.00480677
0.01116088
0.0181816
0.01026783
0.00525606
0.00428324
-0.00307395
-0.00869872
-0.00729088
-0.01652198
-0.01163064
-0.00266612
-0.00253774
0.00615107
-0.00125343
0.00677813
-0.00108133
-0.00238042
-0.01848863
-0.02151513
0.00416895
-0.00033226
-0.00135554
0.00029756
-0.00496917
7.307656e-05
0.01287187
0.00299407
0.00140606
-0.00449263
-0.00455372
-0.0335326
-0.02222023
0.0013339
0.00383714
-0.00898332
-0.00515024
-0.03242061
-0.02922433
-0.01879439
-0.00346124
-0.00996142
-0.00453053
-0.00617932
-0.00013078
0.01305534
0.00216776
-0.00352844
-0.01015744
-0.01502188
-0.02715117
-0.03236163
-0.01758718
0.01309506
0.00869882
0.00614614
0.01169581
0.01624301
0.02685546
0.04471943
0.05488712
0.05378804
0.06041265
0.06430922
0.05606526
0.05163574
0.04754122
0.03452624
0.02981607
0.02250297
0.01943211
0.02827857
0.03954764
0.03175878
0.02525019
0.03324876
0.05380969
0.06355757
0.05924327
0.06481674
0.06729891
0.06666591
0.0512191
0.03969238
0.03097819
0.03777631
0.03455482
0.01811614
0.0057088
-0.00910685
-0.01601318
-0.00997442
0.00041686
0.02284206
0.04977997
0.05076051
0.03610888
0.01134812
0.01744471
0.01566305
-0.00697813
-0.03069434
-0.01982678
-0.00691855
-0.00037597
0.01264254
0.00525021
-0.01714092
-0.02669591
-0.02581951
-0.0251692
-0.00385294
0.01643709
0.01222292
-0.01541668
-0.00123075
0.00991007
0.00202887
-0.00635852
-0.00682633
-0.00388865
0.00082872
0.01924474
0.00610777
-0.0090614
-0.00497648
-0.00663234
-0.00138883
0.00267806
0.00356551
0.01111088
0.01103026
0.00939869
-0.00546369
-0.0188976
-0.01868586
-0.02017055
-0.01948282
-0.00734809
-0.01964671
-0.02107013
-0.00286008
-0.00942961
0.00245694
-0.01097369
-0.01080675
-0.01413013
-0.00319688
0.01151339
0.00771273
-0.00202887
0.01091586
0.00997938
-0.00147001
0.01415888
0.0121337
0.01235241
-0.00493758
-0.01324224
-0.02579305
-0.0148763
-0.00147177
0.00509261
0.00621132
-0.0003725
-0.01139907
-0.0268164
-0.01781243
-0.00974482
-0.00816391
-0.00260903
-0.00445138
0.00325069
0.0086679
0.00185217
-0.0110439
-0.02796078
-0.03874695
-0.05608049
-0.04916857
-0.03524208
-0.01930256
-0.01691961
-0.01209464
-0.00921571
-0.00672593
0.00960142
0.02285554
0.0352542
0.04149096
0.04859762
0.0495312
0.0446155
0.0453775
0.05517071
0.04248184
0.02831039
0.02922509
0.03597267
0.04516537
0.05048212
0.04119331
0.03156708
0.03197851
0.05024464
0.05975772
0.04440575
0.05197208
0.05424953
0.04620459
0.03573201
0.01842446
0.00543443
0.00653195
-0.00015099
-0.02385692
-0.02368214
-0.02659551
-0.03354404
-0.02923607
-0.01819141
0.00694419
0.03842778
0.04413116
0.04468728
0.01891477
0.01200946
0.02807388
0.00161625
-0.03312836
-0.03152664
-0.01661363
-0.0224899
0.00716711
0.00560957
-0.0164323
-0.03172443
-0.0205642
-0.01439955
0.00081388
0.01827378
0.01043629
-0.02436392
0.00164494
0.00775487
-0.00409222
-0.0008156
0.00598707
0.00282387
-0.00137015
0.006725
0.00495222
-0.00366387
-0.00957266
-0.00617415
-0.00135071
0.00021377
-0.00089295
0.01651345
0.01779508
0.01564721
0.00535312
-0.02886811
-0.0223762
-0.01746736
-0.02010633
-0.00749291
-0.02224448
-0.02720652
-0.01533011
-0.02243997
-0.01152451
-0.00377039
-0.02127774
-0.00145175
0.00929346
0.00296387
0.01077826
0.00392048
0.03140163
0.01455818
0.01110739
0.02872082
0.01385271
0.02314426
0.00312221
-0.01358761
-0.01633538
-0.02023788
-0.01520784
0.00657113
0.01037935
-0.00136953
-0.01291713
-0.02565066
-0.02850349
-0.01723484
-0.01254291
0.00205378
-0.00581384
-0.00085465
0.00121301
-0.00563513
-0.02709064
-0.03983777
-0.05410125
-0.06096828
-0.04717668
-0.0431683
-0.04059681
-0.0425592
-0.04341264
-0.03279679
-0.02408014
-0.02194021
-0.01931482
-0.0118175
0.0025828
0.02170456
0.04582389
0.03831696
0.03446252
0.05653244
0.05043362
0.03045553
0.03949516
0.05075667
0.0589711
0.05581757
0.04430297
0.03773108
0.03965758
0.05235562
0.04992561
0.03495807
0.02142732
0.02439775
0.01486863
-0.00478672
-0.02481186
-0.02698741
-0.02708307
-0.03273492
-0.03635497
-0.03468595
-0.03431854
-0.02800158
-0.02473941
-0.02851715
-0.00927146
0.01253068
0.00962559
0.02621711
0.02727885
0.0198879
0.02930424
0.02544997
-0.01650069
-0.03319249
-0.02762139
-0.02900123
0.00097468
-0.00288854
-0.0246454
-0.04018154
-0.03843255
-0.01597666
0.00884442
0.00982933
0.00561737
0.00135776
0.01023478
0.0078799
0.00017382
-0.00172772
0.00631754
0.01383092
0.00206826
-0.00783271
-0.00338228
0.00195198
-0.0014595
-0.00494894
-0.01020527
-0.0184774
-0.01142148
0.01523814
0.01593729
0.01693112
0.00170488
-0.02981869
-0.01582823
-0.00665932
-0.01355327
-0.01370602
-0.00724121
-0.01668399
-0.0168357
-0.02183384
-0.01312014
-0.01547092
-0.02084955
-0.01325554
-0.0068618
-0.01574208
0.00686886
0.00135784
0.02137233
0.01701739
0.0162593
0.01854716
-0.00284771
0.00940486
-0.0072641
-0.01569414
-0.00827652
-0.00845536
-0.00660653
0.00493388
0.00211458
-0.00211216
-0.01136238
-0.02777816
-0.0322914
-0.02164003
-0.00332786
-0.00010102
-0.00837206
0.00270823
-0.00095572
-0.00975413
-0.02831255
-0.0398659
-0.05125959
-0.04732534
-0.03239841
-0.05117794
-0.06096429
-0.06227463
-0.07300723
-0.06890726
-0.05961774
-0.05166095
-0.04447223
-0.03992713
-0.023719
-0.00123531
0.02731676
0.03261103
0.03321094
0.04280397
0.03231911
0.02411115
0.03844274
0.05568749
0.05382297
0.05308444
0.04129816
0.04007482
0.05246139
0.05991203
0.0450162
0.02594306
0.01111439
-0.00257249
-0.02147174
-0.03948491
-0.04966328
-0.05478466
-0.05219754
-0.04839253
-0.04529542
-0.04437498
-0.03213073
-0.01620928
-0.0234364
-0.02470964
-0.0101384
-0.00858482
0.00214676
0.01181097
0.04017621
0.04317392
0.05681862
0.03865584
0.00161557
-0.0123644
-0.00333695
-0.01065421
0.00203376
-0.00638195
-0.02295783
-0.0425049
-0.0536881
-0.02591324
0.00163625
-0.00553297
-0.01236491
0.00090649
0.0015394
0.00602974
0.01089312
0.00168038
0.00046837
0.01384207
0.00661638
-0.00621886
-0.01155929
-0.00347172
0.00868343
-0.00973876
-0.0136297
-0.00978726
-0.00454492
0.00760666
0.02860114
0.01776248
-0.02468913
-0.03775966
-0.01140798
-7.8453806e-05
-0.01888744
-0.01651959
-0.00661117
-0.00723981
-0.00272331
-0.00542551
-0.00980699
-0.03317209
-0.0163851
-0.02927748
-0.01838926
-0.02674225
-0.00535704
-0.00925097
-0.0039275
0.00709441
0.00299193
-0.01410744
-0.01183192
0.01123391
0.00287211
-0.01907477
-0.01329184
-0.01258826
-0.00104528
0.00405891
0.00583511
0.00747416
-0.01090293
-0.01943843
-0.0142226
0.01054536
0.01549764
-0.00056395
-0.00557922
0.01021813
-0.00860984
-0.02103382
-0.02431748
-0.02517832
-0.04369411
-0.03804088
-0.02265888
-0.03999769
-0.04286986
-0.0548516
-0.07103065
-0.07363316
-0.07054952
-0.07603523
-0.06299953
-0.03927168
-0.03157682
-0.01093847
0.02602443
0.03425457
0.03063059
0.03356423
0.02541886
0.0232653
0.03691532
0.04120144
0.04056112
0.03193364
0.02602504
0.0281808
0.03835504
0.0627434
0.05132043
0.02455751
0.0099109
-0.01802154
-0.04819075
-0.06110609
-0.07045288
-0.07239916
-0.07821793
-0.0684139
-0.05235943
-0.03324299
-0.00593968
-0.00638052
-0.00825949
-0.01406559
-0.00880185
-0.01153233
0.00229921
0.0125632
0.0286336
0.0614938
0.0756231
0.04900715
0.01332422
-0.00434091
0.00355498
0.01105699
-0.00052178
-0.00391307
-0.01600521
-0.02647099
-0.03733263
-0.01466328
-0.00701074
-0.0144848
-0.02027858
-0.00534686
0.00069851
0.00713855
0.0164817
0.01557125
0.00444473
0.00224809
0.00477551
-0.00080856
-0.01197181
-0.012888
-0.00543681
-0.0169789
-0.01393848
-0.00129666
-0.01180659
-0.01025582
0.01464486
0.01072182
-0.02149424
-0.02954062
-0.02640611
-0.00838425
-0.02041662
-0.01105267
-0.00518784
-0.00742899
0.00258067
-0.01688005
-0.0141734
-0.02497995
-0.01850719
-0.03820735
-0.03719075
-0.04080942
-0.01763303
-0.01791861
-0.01409047
-0.00835139
-0.00329775
-0.0155324
-0.01268574
-0.005004
-0.00289011
-0.01274513
-0.01499204
-0.02217661
-0.00461225
0.00601978
0.01580991
0.01607332
-0.00481789
-0.01587038
0.0133046
0.0351272
0.0234786
0.01367676
0.0053354
0.00577499
-0.02137551
-0.02486635
-0.00398152
0.01022417
-0.00824216
-0.00098642
0.01177362
0.00786383
0.00438181
-0.02431356
-0.03673029
-0.04355429
-0.05825552
-0.08335753
-0.0793115
-0.05379074
-0.04147587
-0.02109308
0.00628614
0.02443118
0.0264167
0.02870341
0.03027794
0.03243983
0.04479858
0.03570001
0.04006339
0.02718222
0.02081143
0.01199319
0.01937001
0.04183054
0.0427684
0.02674638
0.00953603
-0.01455863
-0.05172988
-0.07722307
-0.09385723
-0.09142638
-0.08640441
-0.0617743
-0.0304142
-0.00183689
0.01985045
0.01258833
0.00855631
-0.00626547
-0.01370993
-0.01577036
-0.00703979
0.00743402
0.01663518
0.05253309
0.07105315
0.05076908
0.00660931
-0.01286171
0.00088212
0.01654551
-0.00126329
-0.00859946
-0.00881775
-0.00851252
-0.01692107
-0.00215894
0.00853792
0.0021243
-0.00222014
0.00675732
0.01184162
0.00466796
0.00662399
0.0110345
0.00102713
-0.0172586
-0.01621413
-0.00911554
-0.00071439
-0.00551116
-0.0156658
-0.01577133
-0.02336143
-0.01879677
-0.01596446
-0.01208623
-0.00347239
0.00311792
-0.01474532
-0.03267692
-0.03486909
-0.01985389
-0.01945187
0.00161803
0.01421206
0.0045512
0.00206517
-0.01742629
-0.01065275
-0.00481744
-0.00672483
-0.01378062
-0.01623278
-0.03053986
-0.02263252
-0.01442974
-0.00956697
0.00079345
0.00398415
-0.00358927
-0.00387521
-0.00219238
-0.01089618
-0.01857405
-0.01764148
-0.01189212
0.00685692
0.00617037
0.00706898
0.01471157
2.147195e-05
-0.00294684
0.02771379
0.02912059
0.02146744
0.0267677
0.00744548
-0.00922563
-0.0152783
-0.01151253
0.02762012
0.05065199
0.03342833
0.03833473
0.05477368
0.06419325
0.0680128
0.03727727
0.02955553
0.0191037
-0.02224862
-0.06940114
-0.07518081
-0.05444679
-0.05233195
-0.03388935
-0.01658839
-0.00840221
0.00247913
0.02299536
0.02863263
0.03126123
0.04053748
0.02984201
0.03498973
0.03851821
0.02941073
0.02448085
0.01301921
0.00861932
0.01526658
0.01072722
0.00650657
-0.01144604
-0.04427018
-0.0588082
-0.08050152
-0.07382475
-0.05661659
-0.01784778
0.02307626
0.0447789
0.06648192
0.04977119
0.04046446
0.02877056
0.01361428
0.00250696
-0.00921489
0.00411081
0.0279072
0.03724236
0.04330655
0.03179779
0.00849458
-0.00965107
-0.00314436
0.01035407
0.00451042
0.00335616
-0.00034373
-0.00657211
-0.01494336
-0.00380145
0.02183177
0.01132865
0.00520719
0.00821572
-0.00136885
-0.00629531
0.00094149
-0.0034492
-0.00917587
-0.0162651
-0.02634485
-0.02772343
-0.01364487
-0.00793972
-0.01300375
-0.01802507
-0.02554293
-0.01986354
-0.00755683
0.00514305
-0.00276317
0.01070355
0.0011557
-0.0286823
-0.02043608
-0.00024468
-0.01471326
0.00099223
0.01916758
0.01535115
0.01120089
0.00533608
0.00632836
0.01366408
0.01164471
0.00659422
0.00225653
-0.01137942
-0.02727106
-0.02127468
-0.01166131
-0.00428121
0.00681288
0.00806394
0.01113536
0.00627609
-0.00449902
-0.01077803
-0.01549359
0.00630359
0.01549081
0.02288611
0.02240079
0.02196765
0.00860987
0.01628632
0.01588599
0.02091722
0.02251938
0.00915466
-0.01554516
-0.01148371
-0.00612497
0.01552328
0.05722457
0.07201464
0.06972275
0.083656
0.11963677
0.12369124
0.11356211
0.10423667
0.07989008
0.06347097
0.02139909
-0.02467045
-0.04698324
-0.03557778
-0.04618121
-0.04606166
-0.03595938
-0.02146739
0.00564296
0.02120213
0.02692464
0.02159999
0.02261511
0.03474284
0.04491101
0.04627684
0.03291216
0.02217913
0.00450037
-0.00249372
-0.00292459
-0.02269305
-0.02944957
-0.04236523
-0.04727156
-0.04123544
-0.04674636
-0.03558706
0.00753514
0.03921193
0.08763698
0.11802598
0.13242595
0.11212363
0.09029326
0.06903398
0.05555088
0.02464333
-0.00643421
0.00608163
0.01298806
0.01182434
0.01275491
0.01322114
0.01200671
-0.00118556
0.00058859
0.00070806
-0.00706226
0.00696045
0.00868506
-0.00498945
-0.00365191
0.00575649
0.02407959
0.01745759
-0.00355787
0.00175485
-0.00127548
-0.01223921
-0.00448148
-0.00287743
-0.00971824
-0.00541105
-0.00630096
-0.01299272
-0.01010836
-0.01253571
0.00364791
-0.00920108
-0.01833859
-0.01558853
-0.01273853
0.00250176
0.00112368
0.01302855
0.00563097
-0.01974112
-0.01153394
0.01966217
0.01136071
0.01440206
0.01443832
0.00324556
0.00840889
0.01776385
0.0121527
0.02312437
0.02749988
0.02598816
0.01771338
-0.00663332
-0.02855978
-0.01849524
-0.00635105
-0.00385798
0.00212789
0.00521154
0.02518841
0.03212007
0.01434638
0.01440585
-0.00477262
0.00533403
0.0178361
0.02928918
0.025613
0.01605248
-0.00425476
-0.00983121
-0.00746782
-0.00820127
0.00112965
-0.01279442
-0.01888368
0.00517136
0.01563489
0.03607737
0.08944669
0.1164011
0.11448995
0.12889999
0.16086127
0.16773377
0.16101073
0.15360828
0.13650319
0.09778815
0.05620142
0.01136104
-0.01099736
-0.02379376
-0.05159035
-0.06432067
-0.06272452
-0.05231254
-0.00962908
0.00974021
0.01944913
0.02512611
0.03849986
0.05839035
0.06943871
0.07331041
0.05717671
0.02739631
0.00635629
-0.0015952
-0.01141308
-0.03565101
-0.04582021
-0.04245231
-0.04026468
-0.03492104
-0.01472203
0.01177401
0.05704587
0.1009015
0.14860032
0.16818003
0.17058595
0.14703232
0.12263064
0.09961032
0.08887787
0.05721384
0.01293468
0.01875966
0.01419777
-0.00525825
-0.017006
0.01528854
0.00719228
0.00070821
0.00040717
-0.0033753
-0.00553326
0.00110645
-0.00634719
-0.00950662
-0.00074721
-0.00880199
0.01078686
0.01506371
-0.00655006
-0.00903592
-0.01491801
-0.01379473
-0.01197869
-0.00555523
-0.01463018
-0.01494676
-0.00629689
-0.0068945
-0.00503026
0.00216065
0.01396253
-0.00083519
-0.01400871
-0.01982575
-0.02688253
-0.01426384
0.00323065
0.01548801
0.00324818
-0.01310228
-0.01073211
0.02834255
0.03329261
0.02821472
0.01589663
0.00183762
0.00680383
0.01631624
0.01325876
0.02097393
0.02255315
0.02731008
0.01766515
-0.00536809
-0.02528599
-0.00610842
-0.00098601
0.00494319
0.00196722
0.00326859
0.01038655
0.01535832
0.00337394
0.01054042
0.00566745
0.00522386
0.02475008
0.02476257
0.02874937
0.01724024
0.00111042
-0.01366285
-0.00904951
-0.02007412
-0.01840059
-0.00428172
0.01322461
0.03605405
0.06068411
0.09533122
0.13276368
0.13365366
0.108549
0.09727222
0.11598668
0.12245622
0.11758184
0.12442126
0.09714983
0.07397757
0.04301632
-0.00361975
-0.01450871
-0.01416306
-0.0407271
-0.05914036
-0.07369822
-0.06491823
-0.02166677
-0.00981573
0.00153942
0.03073528
0.06670519
0.09281436
0.10122366
0.10468514
0.07435884
0.04332662
0.02515607
0.00776595
-0.01629355
-0.03928549
-0.04827179
-0.06969433
-0.05629589
-0.03721353
-0.02437827
0.00220756
0.04614855
0.10071784
0.13983999
0.16544755
0.16599844
0.13730519
0.11061446
0.08685288
0.09930606
0.10364129
0.07907141
0.04841585
0.04000834
0.01622404
-0.01189808
0.00168003
0.00631177
0.00611305
0.00983611
0.01476558
0.00858793
0.00739321
0.0019736
0.00682318
0.00926394
-0.00365586
0.01162113
0.00433005
-0.00719227
-0.01361123
-0.00757629
0.00064954
-0.00118756
-0.00020148
-0.01526385
-0.01895802
-0.00073636
-0.00145879
-0.00772733
0.01639198
0.02816625
0.00981059
-0.00905793
-0.0239225
-0.03607315
-0.01464
-0.00048399
0.00960327
0.00419624
-0.0073572
0.00306495
0.02643329
0.02557375
0.03113951
0.02240338
0.00751523
0.01548909
0.02317574
0.01238013
0.01755044
0.01233209
0.00482174
-0.00278334
-0.00633375
-0.01948958
-0.00087088
0.02074149
0.01202104
0.009024
0.00353254
0.01070027
0.00930378
-0.00180817
0.00690728
-0.01077321
-0.01308902
0.00717512
0.00916976
0.00368839
-0.01985698
-0.01252207
-0.01277275
-0.01233053
-0.01909313
-0.00704018
0.03152455
0.04641809
0.06551556
0.08154192
0.10080586
0.09671441
0.0660148
0.04028941
-0.00442796
-0.00311774
-0.01274054
-0.02264597
-0.02779058
-0.07730288
-0.07152496
-0.07376523
-0.09614009
-0.08674102
-0.0758993
-0.07590731
-0.08864412
-0.08350701
-0.06883124
-0.02520878
0.00161708
0.01444591
0.05088671
0.0896179
0.10722975
0.10206024
0.10029478
0.06756153
0.03504309
0.00687319
-0.02508212
-0.06082947
-0.08486182
-0.11364568
-0.13041109
-0.12124674
-0.11584691
-0.1148724
-0.12839864
-0.11741842
-0.07693326
-0.04463837
-0.00318676
0.03645944
0.03639986
0.02876057
0.01002954
0.04264698
0.06200735
0.06187062
0.06496091
0.06006769
0.02797655
0.00456175
-0.00033233
-7.4017e-05
-0.00180543
0.01158105
0.03096381
0.0386086
0.03244627
0.01987543
0.01951189
0.02359531
0.00643096
0.01679261
0.01551975
0.00318855
-0.00621111
-0.00638592
0.01269342
0.01037788
0.00415718
-0.00963549
-0.00146953
0.01068778
0.00139229
0.00944258
0.02070456
0.03440487
0.02731057
0.01325903
-0.00503169
-0.02678239
-0.01822189
0.00129414
0.00800778
0.00346288
-0.0008092
0.00129771
0.01851588
0.02008957
0.03223649
0.03263153
0.01288872
0.02217485
0.01532885
0.00223563
0.01136523
0.00210521
-0.00762011
-0.01727252
-0.00715219
-0.02011023
0.00099801
0.02080796
0.00318487
0.0101198
0.01178074
0.02291366
0.01297706
0.00515195
0.00644933
-0.01556247
-0.02604227
-0.01542443
-0.00273587
-0.01962319
-0.02302041
-0.03384236
-0.02132887
-0.02624384
-0.01914885
-0.00626121
0.02367064
0.04153504
0.05328517
0.06023394
0.0478901
0.00232704
-0.04117817
-0.09788337
-0.13455391
-0.13915507
-0.15897444
-0.19522236
-0.24933538
-0.28092077
-0.2665421
-0.24666536
-0.21565828
-0.20835398
-0.20342542
-0.17338458
-0.15983413
-0.14637561
-0.1015253
-0.04459748
-0.00720073
0.03073083
0.07418913
0.09672777
0.11291787
0.10831098
0.09230398
0.05313482
0.02044093
-0.02188736
-0.05500212
-0.09292428
-0.13638778
-0.1706834
-0.19930859
-0.20610419
-0.20646307
-0.21216418
-0.27564016
-0.33650327
-0.34444457
-0.2901978
-0.23232405
-0.1515193
-0.13243318
-0.16155455
-0.1635592
-0.09690437
-0.03123922
0.01826589
0.05148125
0.07376047
0.04063216
-0.00093303
-0.02139205
-0.01911167
-0.00922159
0.00711146
0.02030084
0.03542615
0.0499071
0.0266482
0.02250635
0.01976382
0.00941728
0.0160219
0.02318634
0.01353893
-0.00339775
-0.00317123
0.00524401
0.00693699
0.00168546
-0.00190846
0.00590653
0.01465722
0.00975021
0.00776458
0.01688032
0.0170587
0.02197832
0.02078345
0.00850523
-0.0111446
-0.01714545
0.01008489
0.02147769
0.00555754
0.00298054
0.00202502
0.00750568
0.01299017
0.03064729
0.03648802
0.01594486
0.02572887
0.02225813
0.00641419
-0.00540303
0.00330757
0.00602993
-0.01688831
-0.02417647
-0.02283073
-0.00212138
0.0115989
-0.00814631
-0.00368284
0.02156973
0.03508123
0.018057
-0.01181256
-0.00615033
-0.00122054
-0.03243845
-0.02524239
-0.00489591
-0.02115247
-0.02251925
-0.02976982
-0.00745971
-0.01566917
-0.00029662
-0.00236237
0.01380856
0.02767282
0.04049271
0.02997914
-0.03354378
-0.13485162
-0.22892003
-0.285739
-0.2647499
-0.2405556
-0.28916943
-0.38124248
-0.43409967
-0.4175118
-0.4174575
-0.34363744
-0.22311729
-0.22690178
-0.27079216
-0.24081747
-0.20116194
-0.16046901
-0.11562902
-0.06082223
-0.01399975
0.02199458
0.07763658
0.10775196
0.10258668
0.09882171
0.08550075
0.04733802
0.02542572
-0.00415523
-0.05966611
-0.10815313
-0.15318437
-0.19994986
-0.2565204
-0.25234172
-0.22776413
-0.21195105
-0.3050792
-0.42310387
-0.48005408
-0.43009368
-0.37193814
-0.28776348
-0.2004968
-0.23173545
-0.31236026
-0.27571627
-0.16218986
-0.05344443
0.01467826
0.05814214
0.04022668
0.00186187
-0.03631589
-0.04597741
-0.02593235
-0.00069402
0.01469091
0.02868962
0.05279429
0.02914689
0.02553722
0.01798539
0.00284628
0.00699177
0.01692542
0.0217176
0.00769129
-0.00676243
-0.00451964
-0.00046843
-0.00435604
-0.0005438
0.01229825
0.02058064
0.0090836
-0.00503052
0.01291602
0.01169097
0.01847965
0.01532746
0.01035134
-0.0019608
-0.00641018
0.00225446
0.01174556
0.0135703
0.00635796
-0.00575503
0.0126308
0.02713028
0.03413982
0.02812782
0.02168488
0.02479314
0.02140502
0.00877574
-0.00060742
0.01158461
0.00473112
-0.02301574
-0.04819109
-0.03555143
-0.00123016
0.00702472
-0.01754658
-0.0035736
0.01748917
0.02748633
0.02349076
-7.001147e-05
-0.00540434
0.00304723
-0.01267514
0.00638647
0.01626677
-0.01517787
-0.02083981
-0.02589866
0.00220389
-0.00280624
0.00470398
0.0033134
0.01787426
0.02165914
0.03067185
0.00422971
-0.10628793
-0.25673234
-0.37422106
-0.39298517
-0.25377208
-0.18242449
-0.27866727
-0.40187687
-0.4818062
-0.4821967
-0.44844106
-0.29695246
-0.0862132
-0.0853096
-0.21472734
-0.26599613
-0.21027032
-0.14862627
-0.10081474
-0.04273411
-0.00286304
0.02868043
0.07937951
0.11793127
0.12151224
0.11504004
0.0924724
0.06589953
0.05757056
0.03292448
-0.02559429
-0.08452
-0.12391631
-0.19433442
-0.30160433
-0.26312122
-0.12232935
-0.07278541
-0.23921065
-0.44116697
-0.52856785
-0.51813644
-0.41689238
-0.30226228
-0.18726023
-0.20983016
-0.36748993
-0.4217624
-0.31701267
-0.18164687
-0.05206692
0.01646563
0.03125468
0.01062
-0.02162165
-0.03354041
-0.02130327
-0.0058894
0.02375705
0.0351606
0.02928424
0.02083098
0.0169768
0.02353437
0.00530403
0.01551059
0.01562722
0.0205698
0.00065272
-0.00931741
-0.00724073
-0.00027439
0.00569546
-0.00222692
0.01238224
0.02705319
0.01320348
0.0126811
0.01841098
0.01491615
0.01829871
0.01242589
0.01537538
0.0111838
0.0038542
0.00525991
0.00915265
0.01068872
0.01381777
-0.01075347
0.01157028
0.01640696
0.0127233
0.01168828
0.02007098
0.0279773
0.02338667
0.00736876
0.01346014
0.01770433
0.00337521
-0.02417497
-0.03565398
-0.01917262
0.0115812
0.00681462
-0.01137907
-0.00435803
-0.00385001
0.0086543
0.01161457
0.00490257
-0.00624455
0.00719356
0.01736098
0.03090977
0.0508178
0.01827112
-0.00566779
0.01658421
0.0181482
0.01340805
0.02162234
0.03233006
0.03525838
0.04198356
0.03449717
-0.02114939
-0.13990997
-0.2706607
-0.34146646
-0.3184302
-0.19432715
-0.08825656
-0.13165215
-0.25830802
-0.36647186
-0.39003447
-0.3250081
-0.1533656
0.00318048
0.01058352
-0.15591802
-0.28452688
-0.22240335
-0.11159134
-0.0450233
-0.0147405
0.01491692
0.04807238
0.07997499
0.1226797
0.1261693
0.10358582
0.08942712
0.07230914
0.07313002
0.05236866
0.01627718
-0.02787208
-0.04646856
-0.1516804
-0.2627618
-0.18002084
-0.03282236
0.01640903
-0.10327961
-0.3202374
-0.41833368
-0.4092679
-0.3298194
-0.1825675
-0.07188348
-0.14582615
-0.29612166
-0.38123778
-0.3348774
-0.21289928
-0.08348729
-0.00451278
0.03954259
0.03934141
0.00214402
-0.0033105
0.00794151
0.00646714
0.01831244
0.03793162
0.02678336
0.01661433
0.01078493
0.02047816
0.0040301
0.00230838
0.00693006
0.0179255
0.00905812
-0.01376605
-0.01522394
-0.00160671
-0.00286596
-0.02069618
-0.00836889
0.02212784
0.02675699
0.02922119
0.01276894
0.01474782
0.01964763
0.0140089
0.01844504
0.0191863
0.02537633
0.0185585
0.01285026
0.0154008
0.015841
-0.0149654
0.01022322
0.01846718
0.01012891
0.00218107
0.01715762
0.02594432
0.03338971
0.0042853
0.01159656
0.01587111
-0.00618539
-0.01940375
-0.02277791
-0.01097183
0.02000799
0.01481762
-0.00067573
0.01482675
0.01008015
0.00533968
0.00136705
0.01115111
0.01636234
0.03035256
0.04242545
0.03737734
0.04974763
0.03598042
0.0041599
0.02854887
0.00707631
0.01034215
0.02863107
0.03863756
0.03145271
0.04724095
0.04156163
-0.02265279
-0.08070599
-0.11178932
-0.12569414
-0.13244508
-0.09321073
-0.0069182
0.00973489
-0.0361368
-0.0949108
-0.09295791
-0.03880111
0.03583435
0.07871228
0.05059122
-0.03813035
-0.13581768
-0.10712308
-0.02117719
0.01996264
0.01479523
0.0131109
0.04173725
0.06414929
0.09886628
0.10238098
0.09100921
0.0858116
0.08253656
0.07335819
0.06232539
0.04269162
0.01395413
0.00964166
-0.06806159
-0.12375724
-0.07452815
-0.02191821
0.02453574
0.02483863
-0.04864905
-0.09302709
-0.10309548
-0.09647142
-0.02289023
0.00483398
-0.04633193
-0.09704027
-0.15803048
-0.17297767
-0.12782718
-0.06441229
-0.01098164
0.04693428
0.06159423
0.01907179
0.01404654
0.00907491
0.01351007
0.01281086
0.01895836
0.0244428
0.01792614
0.00755267
0.00978483
-0.00159319
0.00095921
-0.00063329
0.00844487
0.02213129
-0.0035387
1.7554941e-05
0.00702022
-0.00519838
-0.01404741
-0.02023065
0.01620691
0.02992926
0.02535477
0.00180138
0.0055203
0.01972951
0.01588309
0.01437538
0.00793306
0.01886798
0.02551833
0.01625792
0.02441626
0.01827538
-0.02678183
0.00545913
0.01966953
0.0264819
0.01663182
0.01019202
0.0262465
0.03661462
0.0149913
0.00766113
0.00775164
-0.01634459
-0.02847095
-0.01427877
-0.00083747
0.01464579
0.00268736
-0.00072711
0.02212949
0.02319124
0.00525543
0.00400299
0.01432049
0.02480287
0.04053105
0.03979404
0.0212725
0.01996914
0.02171464
0.01435447
0.02280959
0.01376496
0.0087901
0.01806694
0.03629258
0.02847344
0.03519764
0.05717761
0.04717342
0.04696045
0.06504232
0.0663965
0.05099514
0.04082496
0.0730448
0.09182388
0.09810162
0.09124171
0.10128247
0.1013661
0.1187496
0.12257142
0.08151203
0.0420676
0.00818222
0.01660965
0.01295112
-0.00118665
-0.00592027
0.01236367
0.03325622
0.04857978
0.06830548
0.08733004
0.08497406
0.06874628
0.06090929
0.04930294
0.03763392
0.01152655
-0.00735956
0.01346746
0.01319791
-0.00321381
0.00955089
0.02429338
0.05483115
0.08853818
0.10808127
0.1264418
0.12238045
0.11472742
0.1128775
0.0897621
0.07252764
0.05443377
0.01983134
-0.00230871
-0.00476239
0.00536576
0.02746294
0.04818386
0.05884257
0.01989086
0.0162545
0.01876894
0.01958786
0.01169283
0.01615209
0.01506004
0.01882347
0.00024054
-0.00464747
0.00272445
0.00706364
-0.00360377
-0.00021603
0.01265823
-0.00918454
0.0015509
0.00918137
0.01018284
0.00165277
-0.00954673
0.00512512
0.00550466
0.01089256
-0.01382933
-4.9964754e-05
0.02149288
0.01438629
0.00667607
-0.00286698
0.00744365
0.01819138
0.01475654
0.01450184
0.00147812
-0.01815079
0.0093559
0.01642272
0.03010821
0.01438478
-0.01239606
0.02138873
0.02583838
0.01634284
-0.0002072
-0.00544767
-0.01237244
-0.02455661
-0.00797021
0.01139613
0.0155934
0.01464266
0.00828716
0.02272847
0.02456612
9.8194156e-05
0.00355523
0.01706834
0.02205735
0.02754452
0.02340844
0.01101883
0.01444259
0.01519043
0.02399178
0.02043119
0.00426588
0.01635481
0.01164304
0.03026817
0.03109016
0.04037515
0.06988348
0.08845124
0.09084293
0.09743603
0.11832061
0.11544123
0.09964127
0.10664557
0.10735144
0.11237938
0.11159616
0.11114852
0.0908605
0.09206634
0.07614692
0.04200541
0.01729651
0.00797332
-0.00078096
-0.02719347
-0.04229181
-0.03543703
0.01173529
0.03476588
0.03367545
0.03745171
0.07028002
0.06414901
0.03916683
0.03136921
0.02488098
0.0028896
-0.02217925
-0.04256976
-0.02405133
-0.00615509
-0.03017872
-0.03007009
-0.01692171
0.02195105
0.0679554
0.10561565
0.1446086
0.17123173
0.17576025
0.16171487
0.13475221
0.11759216
0.10973255
0.09075322
0.0534123
0.04727799
0.05177087
0.05687142
0.05742934
0.04486281
0.01275571
0.00902338
0.02740693
0.02484384
0.01946001
0.02213397
0.01562367
-0.001211
0.01185573
-0.00186973
0.00464183
0.01686367
0.01463973
0.01250411
0.00529367
-0.01749579
0.0068712
0.00909461
0.01329313
0.01215914
-0.0088645
-0.01184988
-0.02251592
-0.01611681
-0.01672551
0.0086382
0.01763004
0.01519951
0.01604949
0.01327673
0.01009708
0.01126394
0.01169355
0.00668864
-0.00679486
-0.01913935
0.01025463
0.01876668
0.02298771
0.00858558
0.00559014
0.02276177
0.02839979
0.00642732
-0.01234942
-0.00317311
-0.01848217
-0.0220715
-0.01426729
0.0029343
-0.00404385
-0.00128001
0.0119349
0.02393895
0.02183694
0.00716775
0.00362609
0.01302286
0.01148935
0.01716816
0.02145406
0.01759283
0.00807149
0.00449556
0.01709855
0.02056213
-0.00514811
0.00038238
0.00816073
0.0249426
0.03317834
0.04068086
0.06120147
0.06581584
0.07299193
0.07533835
0.08624141
0.09254952
0.08357858
0.07440014
0.07499734
0.07789896
0.07600814
0.06258716
0.03359881
0.02194526
0.01634249
0.00638892
0.00995038
0.00784459
-0.02385041
-0.03941737
-0.03943524
-0.01936465
0.02163205
0.03615343
0.03471477
0.03715121
0.05717596
0.03999307
0.02149819
0.01278003
0.01006163
-0.00511325
-0.02964178
-0.05550177
-0.05316122
-0.03164287
-0.03373739
-0.04796898
-0.05100084
-0.01719104
0.02579177
0.0612617
0.09413934
0.12137903
0.12233431
0.12368647
0.12115967
0.104182
0.10430398
0.09732553
0.06217412
0.0554314
0.06715782
0.05529537
0.05065917
0.04142288
0.01242377
0.01062306
0.02011125
0.00249521
0.00154198
0.00788964
0.0173935
-0.01444537
-0.00850025
-0.01087807
0.0096249
0.01937733
0.01682515
0.0204089
0.01198952
0.00382285
0.00994171
0.00738766
0.01649976
0.00620484
-0.00340659
-0.00252796
-0.01951881
-0.0266158
-0.02569306
0.00182258
0.01787644
0.02090423
0.02548221
0.01924501
0.02306084
0.0230822
0.01962973
0.01637642
0.00196986
-0.02428295
0.00953173
0.0106487
0.01371556
0.00242737
0.01338336
0.02451153
0.03048288
-0.00421624
-0.02004772
0.00200669
-0.01266405
-0.0239081
-0.01963213
-0.01701534
-0.02389413
-0.0101388
0.00379793
0.00573035
-0.00246738
0.00478087
-0.00077792
-0.00978436
-0.00473383
0.00659807
0.02327728
0.02995602
0.00391638
-0.00670346
0.00217981
0.01022193
-0.01042534
-0.00715937
0.0072967
0.01305544
0.02302924
0.03873247
0.05383071
0.05435187
0.06536335
0.06365621
0.06989603
0.06991091
0.0657011
0.05711601
0.04488439
0.03801374
0.02645135
0.0166796
-0.0027544
0.00630441
0.01252871
0.0176212
0.02591218
0.02007741
-0.00223568
-0.01967886
-0.01620854
0.00677901
0.02603952
0.03636855
0.04980773
0.05018924
0.0367471
0.02487712
0.01651929
-0.00577541
0.00335152
0.01163815
-0.00771665
-0.03591439
-0.04897209
-0.0247662
-0.00971357
-0.01618978
-0.01713406
-0.00989497
-0.00019849
0.02938704
0.04582638
0.06043572
0.05376196
0.05437458
0.05890209
0.05506536
0.05551558
0.06699919
0.05622641
0.05338627
0.06712124
0.04559439
0.03177528
0.01508788
-0.0070294
-0.0093995
-0.00110011
-0.01017684
-0.00890236
-0.0014494
-0.00337478
-0.01528468
-0.01930665
-0.0098778
0.00691993
0.01038246
0.00282755
0.01237293
0.01650934
0.01705825
0.00602789
0.01212304
0.01503676
-0.00112417
-0.00994292
-0.00270048
-0.01184713
-0.03150868
-0.01737064
0.00344411
0.01211797
0.01524934
0.02034818
0.02141788
0.01978994
0.0142375
0.0198808
0.03024731
0.01170485
-0.02082934
0.01175434
0.01639942
0.01089522
-0.01088754
-0.00740226
0.02156569
0.02688858
-0.00490609
-0.00860357
-0.00090885
-0.01402888
-0.02569931
-0.02364663
-0.01855522
-0.03080875
0.002658
0.01069233
-0.01062808
-0.02036147
-0.00963556
-0.01489575
-0.02296785
-0.02456392
-0.00951342
0.0186667
0.02331402
0.00480471
-0.01678737
-0.01287197
-0.00553527
-0.01076576
-0.01122901
-0.00909628
0.00627409
0.02162695
0.03083852
0.04837535
0.06080788
0.05724403
0.04958223
0.06121303
0.05613601
0.04712781
0.04361833
0.03636419
0.02825153
0.00893764
-0.00194561
0.0172947
0.02572398
0.02625551
0.0268875
0.04081574
0.03594792
0.00139952
-0.01290967
0.00178093
0.00484788
0.01849532
0.03041096
0.03951336
0.04470741
0.03406441
0.02749272
0.01478206
-0.00320404
-0.00147214
0.0132661
0.02122089
-0.00832471
-0.04363788
-0.02005502
0.00445121
0.01914123
0.01246758
0.00022207
-0.00111676
0.02320108
0.03803702
0.03681712
0.02653116
0.0262641
0.03307365
0.0347947
0.03745897
0.05233204
0.05428733
0.04356993
0.05341813
0.03102707
0.01608582
0.00752982
-0.0050744
-0.01125715
0.0024897
0.00022224
0.0022283
-0.00611139
-0.01832762
-0.01472453
-0.01446962
-0.01344528
-0.00032369
0.00914569
0.00790436
0.00707703
0.0081251
-0.00138632
-0.00048797
-0.00913549
-0.00500284
-0.00472077
-0.00373966
0.00876558
0.01097761
-0.00807389
-0.00078246
0.01297759
-0.00648257
0.0053105
0.00615139
0.00773431
0.00196533
0.00509636
0.0143882
0.01824377
0.01180406
-0.00811955
0.01297891
0.02361048
0.01993499
0.00140596
-0.00024478
0.01789472
0.0223748
0.00579089
-0.00288839
-0.00375353
-0.01266579
-0.01937935
-0.01387436
-0.0050407
-0.01047906
0.01463679
0.02902216
0.00986741
-0.00385845
-0.01080807
-0.01445006
-0.02575084
-0.01682372
-0.00305491
0.00855178
0.01331082
0.00600045
-0.01565251
-0.03509693
-0.03250297
-0.02547155
-0.02340604
-0.01706117
-0.00147438
0.00744172
0.00826694
0.01720362
0.03390628
0.03795935
0.03341199
0.04009311
0.03262573
0.01538271
0.00190706
0.01299242
0.01072489
-0.00824283
-0.00530209
0.01180426
0.0125532
0.01417047
0.0192485
0.02847563
0.02310514
-0.00581779
-0.00899392
0.00080967
-0.00160548
0.0118338
0.01814738
0.02416513
0.03002672
0.02542664
0.01475633
-0.00536975
-0.01034803
-0.00166241
0.01923033
0.02864604
0.00825829
-0.0260665
-0.01330458
0.01192451
0.0379381
0.03372668
0.01188034
0.00655306
0.02275022
